{"learner":{"attributes":{"scikit_learn":"{\"_estimator_type\": \"regressor\"}"},"feature_names":["temperature_2m_mean","precipitation_sum","wind_speed_10m_max","wind_direction_10m_dominant","relative_humidity_2m_mean","pm25_lag1","pm25_lag2","pm25_lag3"],"feature_types":["float","float","float","float","float","float","float","float"],"gradient_booster":{"model":{"gbtree_model_param":{"num_parallel_tree":"1","num_trees":"100"},"iteration_indptr":[0,1,2,3,4,5,6,7,8,9,10,11,12,13,14,15,16,17,18,19,20,21,22,23,24,25,26,27,28,29,30,31,32,33,34,35,36,37,38,39,40,41,42,43,44,45,46,47,48,49,50,51,52,53,54,55,56,57,58,59,60,61,62,63,64,65,66,67,68,69,70,71,72,73,74,75,76,77,78,79,80,81,82,83,84,85,86,87,88,89,90,91,92,93,94,95,96,97,98,99,100],"tree_info":[0,0,0,0,0,0,0,0,0,0,0,0,0,0,0,0,0,0,0,0,0,0,0,0,0,0,0,0,0,0,0,0,0,0,0,0,0,0,0,0,0,0,0,0,0,0,0,0,0,0,0,0,0,0,0,0,0,0,0,0,0,0,0,0,0,0,0,0,0,0,0,0,0,0,0,0,0,0,0,0,0,0,0,0,0,0,0,0,0,0,0,0,0,0,0,0,0,0,0,0],"trees":[{"base_weights":[4.6560313E-8,-7.277279E0,1.658637E1,-1.0672925E1,-7.430032E-1,1.0660647E1,2.9047525E1,-1.2228029E1,-6.748936E0,-3.5453413E0,2.214786E0,-3.6815559E-3,1.2143659E1,2.4902355E1,5.0519974E1,-1.3532452E1,-1.094219E1,-7.9013987E0,-4.015598E0,-5.0750823E0,-1.3818358E0,3.4288692E-1,6.841299E0,-5.263962E0,4.018922E0,1.0364944E1,1.6557266E1,1.0947269E1,2.6367254E1,5.1608765E1,-5.8794723E0,-1.4256113E1,-1.2731696E1,-1.1681407E1,-1.0176507E1,-6.6287785E0,-8.592399E0,-8.765365E-1,-6.147863E0,-6.8908706E0,-3.7546527E0,-3.2554528E-1,-5.1694746E0,1.7936859E0,-1.0942278E0,9.692733E0,1.8791738E0,-6.092341E-1,-8.006367E0,4.7768893E0,-5.4843073E0,9.2168045E0,1.5133458E1,-2.9388418E0,1.6728977E1,2.1494251E1,5.1081395E0,2.3431902E1,3.429307E1,4.2880024E1,5.881955E1,-2.2993813E0,-3.463812E-1,-4.2917476E0,-2.4195106E0,-3.8641381E0,-3.0729207E-1,-3.5114777E0,3.151188E-1,-2.517113E0,-3.174146E0,-1.5469439E0,-2.2258856E0,-2.6003816E0,-6.0330194E-1,-4.0234256E-1,3.6009283E0,-3.8163397E0,-1.61871E0,-1.6922203E0,-2.5823514E0,3.972119E0,-1.1573538E0,-2.2261417E-1,4.825061E0,1.004891E0,-2.2795696E0,1.0534031E-1,1.1680238E0,-3.958155E-1,2.488061E0,2.459798E0,7.4056044E0,1.2312815E0,-1.1409719E0,-8.316601E-1,4.2429285E0,2.2021189E0,-2.543705E0,1.5290612E0,-1.1330718E0,1.4011585E0,-2.8943021E0,1.969953E0,3.0419743E0,5.153885E0,1.6166679E0,3.9803305E0,5.482273E0,2.912878E0,8.562469E0,4.8445444E0,4.877297E-1,6.7302256E0,9.155033E0,6.218225E0,1.0799846E1,1.39043665E1,6.232878E0,1.2979536E1,1.9003376E1],"categories":[],"categories_nodes":[],"categories_segments":[],"categories_sizes":[],"default_left":[0,0,0,0,0,0,0,0,0,0,0,0,0,0,0,0,0,0,0,0,0,0,0,0,0,0,0,0,0,0,0,0,0,0,0,0,0,0,0,0,0,0,0,0,0,0,0,0,0,0,0,0,0,0,0,0,0,0,0,0,0,0,0,0,0,0,0,0,0,0,0,0,0,0,0,0,0,0,0,0,0,0,0,0,0,0,0,0,0,0,0,0,0,0,0,0,0,0,0,0,0,0,0,0,0,0,0,0,0,0,0,0,0,0,0,0,0,0,0,0,0],"id":0,"left_children":[1,3,5,7,9,11,13,15,17,19,21,23,25,27,29,31,33,35,37,39,41,43,45,47,49,51,53,55,57,59,61,63,65,67,69,71,73,75,77,79,81,83,85,87,89,91,93,95,97,99,101,103,105,-1,107,109,111,113,115,117,119,-1,-1,-1,-1,-1,-1,-1,-1,-1,-1,-1,-1,-1,-1,-1,-1,-1,-1,-1,-1,-1,-1,-1,-1,-1,-1,-1,-1,-1,-1,-1,-1,-1,-1,-1,-1,-1,-1,-1,-1,-1,-1,-1,-1,-1,-1,-1,-1,-1,-1,-1,-1,-1,-1,-1,-1,-1,-1,-1,-1],"loss_changes":[8.5059856E5,1.0866934E5,1.5837544E5,1.9584906E4,1.3899756E4,2.3058766E4,6.033475E4,3.7214062E3,2.8568906E3,2.8425557E3,7.064514E3,3.8087988E3,9.877078E3,1.1609031E4,7.1196562E3,4.796875E2,5.4165625E2,5.0936328E2,1.8285786E3,1.1825283E3,1.4306204E3,1.2154121E3,3.3068408E3,9.9080396E2,7.6091797E2,4.870078E3,1.8200859E3,3.4005605E3,1.1433906E4,4.3384062E3,1.6453957E1,6.650781E1,9.464453E2,1.880625E2,3.3044922E2,2.3070703E2,1.8839453E2,6.8629974E2,7.3726025E2,4.0434375E2,5.666865E2,1.9324049E3,1.6395605E3,8.770324E2,6.302631E2,3.1337168E3,1.115631E3,9.9647107E2,4.1766772E2,2.7927075E2,3.832861E2,1.743832E3,3.416664E3,0E0,1.7043984E3,1.383874E3,1.4347175E3,2.0512656E3,2.4946406E3,3.0996562E3,1.2712812E3,0E0,0E0,0E0,0E0,0E0,0E0,0E0,0E0,0E0,0E0,0E0,0E0,0E0,0E0,0E0,0E0,0E0,0E0,0E0,0E0,0E0,0E0,0E0,0E0,0E0,0E0,0E0,0E0,0E0,0E0,0E0,0E0,0E0,0E0,0E0,0E0,0E0,0E0,0E0,0E0,0E0,0E0,0E0,0E0,0E0,0E0,0E0,0E0,0E0,0E0,0E0,0E0,0E0,0E0,0E0,0E0,0E0,0E0,0E0,0E0],"parents":[2147483647,0,0,1,1,2,2,3,3,4,4,5,5,6,6,7,7,8,8,9,9,10,10,11,11,12,12,13,13,14,14,15,15,16,16,17,17,18,18,19,19,20,20,21,21,22,22,23,23,24,24,25,25,26,26,27,27,28,28,29,29,30,30,31,31,32,32,33,33,34,34,35,35,36,36,37,37,38,38,39,39,40,40,41,41,42,42,43,43,44,44,45,45,46,46,47,47,48,48,49,49,50,50,51,51,52,52,54,54,55,55,56,56,57,57,58,58,59,59,60,60],"right_children":[2,4,6,8,10,12,14,16,18,20,22,24,26,28,30,32,34,36,38,40,42,44,46,48,50,52,54,56,58,60,62,64,66,68,70,72,74,76,78,80,82,84,86,88,90,92,94,96,98,100,102,104,106,-1,108,110,112,114,116,118,120,-1,-1,-1,-1,-1,-1,-1,-1,-1,-1,-1,-1,-1,-1,-1,-1,-1,-1,-1,-1,-1,-1,-1,-1,-1,-1,-1,-1,-1,-1,-1,-1,-1,-1,-1,-1,-1,-1,-1,-1,-1,-1,-1,-1,-1,-1,-1,-1,-1,-1,-1,-1,-1,-1,-1,-1,-1,-1,-1,-1],"split_conditions":[1.987E1,9.4E0,3.875E1,6.55E0,1.3E1,1.44E1,6.264E1,3.38E0,1.045E1,1.47E1,2.1E1,9.8E0,3.198E1,2.227E1,2.1746502E1,2.2E0,4.75E0,1.5287083E1,1.0233123E1,9.18E0,1.913426E1,1.0630672E1,1.2738099E1,1.5E1,1.970815E1,3.5E1,5.07E0,9.114471E0,5.358E1,6.588E1,6.9287505E0,8E0,1.782E1,9.2234276E1,1.000256E1,1.0233123E1,3.035167E1,3.275E1,5.5813705E1,1.484318E1,-9.379166E-1,4.875E1,1.045E1,1.645E1,4.042E1,5E1,1.8847641E1,3.203E1,7.3997297E0,1.5100001E1,2.023E1,1.672E1,1.6267857E1,-2.9388418E0,2.7E1,8.870804E1,6.276667E0,5.358E1,7.154988E1,1.405845E1,8.694809E1,-2.2993813E0,-3.463812E-1,-4.2917476E0,-2.4195106E0,-3.8641381E0,-3.0729207E-1,-3.5114777E0,3.151188E-1,-2.517113E0,-3.174146E0,-1.5469439E0,-2.2258856E0,-2.6003816E0,-6.0330194E-1,-4.0234256E-1,3.6009283E0,-3.8163397E0,-1.61871E0,-1.6922203E0,-2.5823514E0,3.972119E0,-1.1573538E0,-2.2261417E-1,4.825061E0,1.004891E0,-2.2795696E0,1.0534031E-1,1.1680238E0,-3.958155E-1,2.488061E0,2.459798E0,7.4056044E0,1.2312815E0,-1.1409719E0,-8.316601E-1,4.2429285E0,2.2021189E0,-2.543705E0,1.5290612E0,-1.1330718E0,1.4011585E0,-2.8943021E0,1.969953E0,3.0419743E0,5.153885E0,1.6166679E0,3.9803305E0,5.482273E0,2.912878E0,8.562469E0,4.8445444E0,4.877297E-1,6.7302256E0,9.155033E0,6.218225E0,1.0799846E1,1.39043665E1,6.232878E0,1.2979536E1,1.9003376E1],"split_indices":[5,6,5,5,5,6,6,5,5,6,6,6,5,6,2,5,5,0,2,5,2,2,2,7,2,6,7,2,5,5,0,6,7,4,2,2,0,7,4,2,0,7,7,5,7,6,2,5,2,1,5,7,2,0,6,4,0,6,4,2,4,0,0,0,0,0,0,0,0,0,0,0,0,0,0,0,0,0,0,0,0,0,0,0,0,0,0,0,0,0,0,0,0,0,0,0,0,0,0,0,0,0,0,0,0,0,0,0,0,0,0,0,0,0,0,0,0,0,0,0,0],"split_type":[0,0,0,0,0,0,0,0,0,0,0,0,0,0,0,0,0,0,0,0,0,0,0,0,0,0,0,0,0,0,0,0,0,0,0,0,0,0,0,0,0,0,0,0,0,0,0,0,0,0,0,0,0,0,0,0,0,0,0,0,0,0,0,0,0,0,0,0,0,0,0,0,0,0,0,0,0,0,0,0,0,0,0,0,0,0,0,0,0,0,0,0,0,0,0,0,0,0,0,0,0,0,0,0,0,0,0,0,0,0,0,0,0,0,0,0,0,0,0,0,0],"sum_hessian":[7.045E3,4.897E3,2.148E3,3.222E3,1.675E3,1.457E3,6.91E2,2.306E3,9.16E2,8.6E2,8.15E2,1.78E2,1.279E3,5.81E2,1.1E2,1.14E3,1.166E3,6.43E2,2.73E2,5.03E2,3.57E2,5.81E2,2.34E2,7.7E1,1.01E2,9.14E2,3.65E2,5.6E1,5.25E2,1.08E2,2E0,5.9E2,5.5E2,5.86E2,5.8E2,2.3E2,4.13E2,1.11E2,1.62E2,2.1E2,2.93E2,2.8E2,7.7E1,2.89E2,2.92E2,1.48E2,8.6E1,2.9E1,4.8E1,9.4E1,7E0,7.39E2,1.75E2,2E0,3.63E2,1.9E1,3.7E1,3.86E2,1.39E2,5.2E1,5.6E1,1E0,1E0,5.84E2,6E0,5.43E2,7E0,5.85E2,1E0,1.11E2,4.69E2,8.3E1,1.47E2,4.08E2,5E0,1.08E2,3E0,1.5E1,1.47E2,1.24E2,8.6E1,1E0,2.92E2,2.74E2,6E0,1.7E1,6E1,1.72E2,1.17E2,2.86E2,6E0,1.36E2,1.2E1,6.2E1,2.4E1,2.6E1,3E0,1E0,4.7E1,9.1E1,3E0,2E0,5E0,1.93E2,5.46E2,1.44E2,3.1E1,1.15E2,2.48E2,8E0,1.1E1,8E0,2.9E1,3.42E2,4.4E1,1.7E1,1.22E2,4.4E1,8E0,1.5E1,4.1E1],"tree_param":{"num_deleted":"0","num_feature":"8","num_nodes":"121","size_leaf_vector":"1"}},{"base_weights":[1.4997075E-2,-5.0969114E0,1.166605E1,-7.4890547E0,-3.963708E-1,8.048735E0,2.2065992E1,-8.342307E0,-4.4185767E0,-1.5639058E0,4.306913E0,2.193836E-1,9.151068E0,1.8705364E1,3.6092937E1,-9.25068E0,-7.0305376E0,-4.796547E0,1.125178E0,-2.745953E0,1.381619E-1,1.4966434E0,7.3761463E0,-4.700196E0,2.5500035E0,7.4373217E0,1.2857034E1,8.074972E0,1.9869455E1,3.693119E1,-4.9975514E0,-1.0049046E1,-8.760059E0,-5.8376765E0,-7.353364E0,-5.64474E0,-3.6447508E0,7.645808E0,-3.3397205E0,-2.2077705E-1,-3.2867193E0,-5.598167E0,7.0457715E-1,2.3259025E0,-2.0919073E0,5.3008256E0,2.4155212E1,-7.3441334E0,1.2373011E-2,5.808034E0,2.3750697E-1,5.599006E0,9.222399E0,1.1475627E1,1.8191637E1,1.521826E1,2.93935E0,1.7664707E1,2.4880026E1,3.045752E1,4.1734787E1,-1.9544741E0,-2.9442403E-1,-2.8624675E0,-3.1659553E0,-2.6526673E0,-6.757398E-1,-1.0229734E0,-1.9512664E0,-2.2110298E0,9.453405E-1,-2.897194E-1,-1.7664987E0,-1.2894276E0,6.662172E-2,3.8675785E0,-2.8865132E0,1.8147672E0,-1.5469788E0,-1.5577908E-1,6.145554E0,-1.1745135E0,-6.4847505E-1,3.4040755E-1,-2.418299E0,5.8558196E-1,-2.646151E-1,-7.7070063E-1,9.327844E-1,1.3784777E0,-1.220681E0,1.3491929E0,9.509079E0,9.187101E0,7.518527E-1,1.903018E-1,-2.3972118E0,1.371393E0,-1.0711597E0,1.3209858E0,3.34633E0,3.429046E-1,-1.6639231E0,-2.9122906E0,1.7347493E0,2.2409098E0,4.0594482E0,1.7465469E0,3.7498734E0,6.3379545E0,2.8088229E0,6.7592173E0,7.041846E-1,2.598607E0,-5.6820965E-1,3.8222446E0,5.7830625E0,2.8143005E0,7.903394E0,9.870531E0,4.8630114E0,4.368457E0,1.28924265E1],"categories":[],"categories_nodes":[],"categories_segments":[],"categories_sizes":[],"default_left":[0,0,0,0,0,0,0,0,0,0,0,0,0,0,0,0,0,0,0,0,0,0,0,0,0,0,0,0,0,0,0,0,0,0,0,0,0,0,0,0,0,0,0,0,0,0,0,0,0,0,0,0,0,0,0,0,0,0,0,0,0,0,0,0,0,0,0,0,0,0,0,0,0,0,0,0,0,0,0,0,0,0,0,0,0,0,0,0,0,0,0,0,0,0,0,0,0,0,0,0,0,0,0,0,0,0,0,0,0,0,0,0,0,0,0,0,0,0,0,0,0,0,0],"id":1,"left_children":[1,3,5,7,9,11,13,15,17,19,21,23,25,27,29,31,33,35,37,39,41,43,45,47,49,51,53,55,57,59,61,63,65,67,69,71,73,75,77,79,81,83,85,87,89,91,93,95,97,99,101,103,105,107,109,111,113,115,117,119,121,-1,-1,-1,-1,-1,-1,-1,-1,-1,-1,-1,-1,-1,-1,-1,-1,-1,-1,-1,-1,-1,-1,-1,-1,-1,-1,-1,-1,-1,-1,-1,-1,-1,-1,-1,-1,-1,-1,-1,-1,-1,-1,-1,-1,-1,-1,-1,-1,-1,-1,-1,-1,-1,-1,-1,-1,-1,-1,-1,-1,-1,-1],"loss_changes":[4.1971297E5,5.5071945E4,8.06675E4,8.4673125E3,9.08377E3,1.3772352E4,2.5440062E4,2.9603594E3,1.4889219E3,2.6661794E3,2.826708E3,2.282188E3,8.789547E3,5.395797E3,3.8356562E3,4.9834375E2,3.5871875E2,6.271406E2,1.3647767E3,1.0671196E3,1.7714788E3,5.1968567E2,5.339003E3,7.9751416E2,1.0157356E3,3.0953516E3,3.0410781E3,1.6427888E3,4.0235E3,1.9629375E3,1.1887993E1,4.3347656E1,4.8002344E2,3.4515576E2,1.6684766E2,4.2741992E2,7.1843896E2,1.8452042E3,5.0883252E2,8.697196E2,4.4681348E2,8.2165894E2,9.833552E2,5.4866125E2,4.5495856E2,2.848016E3,2.3038613E3,2.1657397E2,4.083437E2,3.71463E2,4.2533047E2,1.3902344E3,3.5619102E3,1.9708242E3,2.1083418E3,1.7353662E3,7.908824E2,2.0088281E3,2.499586E3,1.1382266E3,1.2947734E3,0E0,0E0,0E0,0E0,0E0,0E0,0E0,0E0,0E0,0E0,0E0,0E0,0E0,0E0,0E0,0E0,0E0,0E0,0E0,0E0,0E0,0E0,0E0,0E0,0E0,0E0,0E0,0E0,0E0,0E0,0E0,0E0,0E0,0E0,0E0,0E0,0E0,0E0,0E0,0E0,0E0,0E0,0E0,0E0,0E0,0E0,0E0,0E0,0E0,0E0,0E0,0E0,0E0,0E0,0E0,0E0,0E0,0E0,0E0,0E0,0E0,0E0],"parents":[2147483647,0,0,1,1,2,2,3,3,4,4,5,5,6,6,7,7,8,8,9,9,10,10,11,11,12,12,13,13,14,14,15,15,16,16,17,17,18,18,19,19,20,20,21,21,22,22,23,23,24,24,25,25,26,26,27,27,28,28,29,29,30,30,31,31,32,32,33,33,34,34,35,35,36,36,37,37,38,38,39,39,40,40,41,41,42,42,43,43,44,44,45,45,46,46,47,47,48,48,49,49,50,50,51,51,52,52,53,53,54,54,55,55,56,56,57,57,58,58,59,59,60,60],"right_children":[2,4,6,8,10,12,14,16,18,20,22,24,26,28,30,32,34,36,38,40,42,44,46,48,50,52,54,56,58,60,62,64,66,68,70,72,74,76,78,80,82,84,86,88,90,92,94,96,98,100,102,104,106,108,110,112,114,116,118,120,122,-1,-1,-1,-1,-1,-1,-1,-1,-1,-1,-1,-1,-1,-1,-1,-1,-1,-1,-1,-1,-1,-1,-1,-1,-1,-1,-1,-1,-1,-1,-1,-1,-1,-1,-1,-1,-1,-1,-1,-1,-1,-1,-1,-1,-1,-1,-1,-1,-1,-1,-1,-1,-1,-1,-1,-1,-1,-1,-1,-1,-1,-1],"split_conditions":[1.987E1,9.18E0,4.2E1,7.45E0,2E1,1.5E1,6.264E1,4.28E0,3.095E1,1.4E1,8.242272E1,6.8206024E1,3.3E1,2.189E1,2.1746502E1,2.15E0,1.0105681E1,1.1E1,6.8206024E1,5.849584E0,6.18E0,7.0000005E-1,4.1E1,1.045E1,6.9287505E0,8.489806E1,4.36E1,9.114471E0,5.6E1,6.588E1,6.9287505E0,1.6215992E1,1.782E1,1.2249583E1,3.504596E1,5.1912503E0,2.3272493E1,2.4408424E1,3.203E1,2.6052162E1,1.168E1,6.8E0,1.1595417E1,5.4120113E1,2.117E1,4.875E1,5.1E1,5.43E0,1.0495713E1,2.7E1,1.970815E1,5.28E0,3.3E1,7.394594E1,1.0000001E0,9.105704E1,3.347E1,7.755314E1,2.4E1,1.2466867E1,5.495161E0,-1.9544741E0,-2.9442403E-1,-2.8624675E0,-3.1659553E0,-2.6526673E0,-6.757398E-1,-1.0229734E0,-1.9512664E0,-2.2110298E0,9.453405E-1,-2.897194E-1,-1.7664987E0,-1.2894276E0,6.662172E-2,3.8675785E0,-2.8865132E0,1.8147672E0,-1.5469788E0,-1.5577908E-1,6.145554E0,-1.1745135E0,-6.4847505E-1,3.4040755E-1,-2.418299E0,5.8558196E-1,-2.646151E-1,-7.7070063E-1,9.327844E-1,1.3784777E0,-1.220681E0,1.3491929E0,9.509079E0,9.187101E0,7.518527E-1,1.903018E-1,-2.3972118E0,1.371393E0,-1.0711597E0,1.3209858E0,3.34633E0,3.429046E-1,-1.6639231E0,-2.9122906E0,1.7347493E0,2.2409098E0,4.0594482E0,1.7465469E0,3.7498734E0,6.3379545E0,2.8088229E0,6.7592173E0,7.041846E-1,2.598607E0,-5.6820965E-1,3.8222446E0,5.7830625E0,2.8143005E0,7.903394E0,9.870531E0,4.8630114E0,4.368457E0,1.28924265E1],"split_indices":[5,5,5,6,6,6,6,5,6,5,4,4,5,6,2,5,2,6,4,0,6,1,6,6,0,4,6,2,5,5,0,2,7,0,2,0,0,2,6,2,6,7,0,4,6,7,7,7,2,5,2,7,6,4,1,4,7,4,7,2,2,0,0,0,0,0,0,0,0,0,0,0,0,0,0,0,0,0,0,0,0,0,0,0,0,0,0,0,0,0,0,0,0,0,0,0,0,0,0,0,0,0,0,0,0,0,0,0,0,0,0,0,0,0,0,0,0,0,0,0,0,0,0],"split_type":[0,0,0,0,0,0,0,0,0,0,0,0,0,0,0,0,0,0,0,0,0,0,0,0,0,0,0,0,0,0,0,0,0,0,0,0,0,0,0,0,0,0,0,0,0,0,0,0,0,0,0,0,0,0,0,0,0,0,0,0,0,0,0,0,0,0,0,0,0,0,0,0,0,0,0,0,0,0,0,0,0,0,0,0,0,0,0,0,0,0,0,0,0,0,0,0,0,0,0,0,0,0,0,0,0,0,0,0,0,0,0,0,0,0,0,0,0,0,0,0,0,0,0],"sum_hessian":[7.045E3,4.897E3,2.148E3,3.245E3,1.652E3,1.595E3,5.53E2,2.538E3,7.07E2,1.324E3,3.28E2,1.97E2,1.398E3,4.48E2,1.05E2,1.496E3,1.042E3,6.62E2,4.5E1,7.81E2,5.43E2,1.72E2,1.56E2,6.3E1,1.34E2,9.58E2,4.4E2,4.5E1,4.03E2,1.03E2,2E0,5.62E2,9.34E2,2.26E2,8.16E2,3.79E2,2.83E2,1.8E1,2.7E1,1.38E2,6.43E2,4.8E1,4.95E2,1.4E2,3.2E1,1.4E2,1.6E1,4E1,2.3E1,5.5E1,7.9E1,4.74E2,4.84E2,3.52E2,8.8E1,1.8E1,2.7E1,2.83E2,1.2E2,4.7E1,5.6E1,1E0,1E0,2.9E2,2.72E2,9.22E2,1.2E1,5E1,1.76E2,8.15E2,1E0,1.9E1,3.6E2,2.42E2,4.1E1,1.4E1,4E0,4E0,2.3E1,1.37E2,1E0,4.11E2,2.32E2,1.3E1,3.5E1,2.77E2,2.18E2,1.9E1,1.21E2,7E0,2.5E1,1.37E2,3E0,1.2E1,4E0,3E0,3.7E1,1E1,1.3E1,4.5E1,1E1,6.9E1,1E1,5E0,4.69E2,3.46E2,1.38E2,5.5E1,2.97E2,6.5E1,2.3E1,1.1E1,7E0,1.2E1,1.5E1,7.2E1,2.11E2,1.1E1,1.09E2,3.9E1,8E0,3E0,5.3E1],"tree_param":{"num_deleted":"0","num_feature":"8","num_nodes":"123","size_leaf_vector":"1"}},{"base_weights":[2.308212E-2,-3.8277032E0,7.6903195E0,-5.471233E0,-1.0574635E0,5.725648E0,1.76407E1,-6.278343E0,-4.0845947E0,-1.6154153E0,2.9926748E0,2.7426376E0,7.6431427E0,1.4614492E1,2.7082811E1,-6.970746E0,-5.7985106E0,-4.476893E0,-1.6258157E0,-2.200139E0,3.8871282E-1,2.1826408E0,1.6311356E1,-1.7347269E0,3.83413E0,5.961399E0,9.900159E0,7.9525166E0,1.630993E1,2.1523737E1,3.1238838E1,-7.1473937E0,-5.7814417E0,-5.8353605E0,3.4681969E0,-4.6432986E0,-1.616899E0,-4.607541E0,9.393866E-1,-2.260866E0,1.0160125E1,3.257799E0,-1.3797E0,4.354423E0,-1.1566106E0,3.4022976E1,6.62715E0,1.5385987E0,-3.714918E0,2.9330268E0,6.2662725E0,-1.2228916E0,6.4533863E0,8.19799E0,1.249753E1,1.3603077E1,3.4936934E0,2.5493456E1,1.5384095E1,2.2299906E1,-1.6613028E0,3.7899788E1,2.2795458E1,-1.4485776E0,-2.1627514E0,-1.8578926E0,2.2414798E-1,-1.7571778E0,4.887554E-1,2.619362E-2,1.7079049E0,-1.4771945E0,-9.106696E-1,1.7721757E0,-9.870557E-1,-6.766741E-1,-2.480915E0,6.7227483E0,1.19301416E-1,-4.5768788E-1,-9.901778E-1,-1.681508E0,4.3302484E0,3.2895604E-1,2.589642E0,-4.9535528E-1,3.122151E0,7.233047E-1,3.9235513E0,-2.560833E-2,-2.00133E0,1.3237E1,5.5828714E-1,-1.3501948E-1,6.2794805E0,9.494638E-1,-1.1395894E0,1.3902259E0,-1.2690724E0,7.412019E-1,1.5840412E0,1.9720742E0,-1.5015638E0,2.8834805E0,-8.45248E-1,2.2056968E0,1.1183516E0,2.2608097E0,5.760801E0,4.4759026E0,2.8475919E0,4.708443E0,-2.5087166E0,4.470909E0,-8.9510426E-2,2.4161074E0,9.717714E0,4.214165E0,6.274554E0,5.3835807E0,1.0332067E1,5.190441E0,1.19261055E1,-7.118212E-1,7.5261483E0],"categories":[],"categories_nodes":[],"categories_segments":[],"categories_sizes":[],"default_left":[0,0,0,0,0,0,0,0,0,0,0,0,0,0,0,0,0,0,0,0,0,0,0,0,0,0,0,0,0,0,0,0,0,0,0,0,0,0,0,0,0,0,0,0,0,0,0,0,0,0,0,0,0,0,0,0,0,0,0,0,0,0,0,0,0,0,0,0,0,0,0,0,0,0,0,0,0,0,0,0,0,0,0,0,0,0,0,0,0,0,0,0,0,0,0,0,0,0,0,0,0,0,0,0,0,0,0,0,0,0,0,0,0,0,0,0,0,0,0,0,0,0,0,0,0],"id":2,"left_children":[1,3,5,7,9,11,13,15,17,19,21,23,25,27,29,31,33,35,37,39,41,43,45,47,49,51,53,55,57,59,61,63,65,67,69,71,73,75,77,79,81,83,85,87,89,91,93,95,97,99,101,103,105,107,109,111,113,115,117,119,-1,121,123,-1,-1,-1,-1,-1,-1,-1,-1,-1,-1,-1,-1,-1,-1,-1,-1,-1,-1,-1,-1,-1,-1,-1,-1,-1,-1,-1,-1,-1,-1,-1,-1,-1,-1,-1,-1,-1,-1,-1,-1,-1,-1,-1,-1,-1,-1,-1,-1,-1,-1,-1,-1,-1,-1,-1,-1,-1,-1,-1,-1,-1,-1],"loss_changes":[2.0806178E5,2.1352195E4,4.595697E4,3.2691875E3,3.9549329E3,1.1241535E4,1.0690828E4,5.7721094E2,1.04025E3,1.8020061E3,2.2515776E3,3.7794229E3,4.488258E3,3.2136055E3,1.4762656E3,1.1750391E2,3.9722656E2,4.3795117E2,1.1592864E3,9.1618604E2,1.7701525E3,1.4627141E3,1.8328003E3,9.909508E2,1.3426104E3,2.4432168E3,2.152336E3,1.5145557E3,1.6058789E3,1.0266719E3,2.0043438E3,5.8878906E1,2.8136157E2,1.8935547E2,3.7112217E1,3.839707E2,6.8670917E2,5.8427734E2,9.4478986E2,9.0083545E2,4.8518878E2,1.5353898E3,7.083729E2,2.0369094E3,4.720221E2,1.2172798E3,9.205416E2,5.154525E2,4.2833496E2,4.8071826E2,6.113594E2,8.045321E2,1.5529043E3,2.1208086E3,1.3143633E3,1.3717847E3,1.5619834E3,2.1454326E3,1.3033867E3,1.6023594E3,0E0,3.432539E2,1.5014746E3,0E0,0E0,0E0,0E0,0E0,0E0,0E0,0E0,0E0,0E0,0E0,0E0,0E0,0E0,0E0,0E0,0E0,0E0,0E0,0E0,0E0,0E0,0E0,0E0,0E0,0E0,0E0,0E0,0E0,0E0,0E0,0E0,0E0,0E0,0E0,0E0,0E0,0E0,0E0,0E0,0E0,0E0,0E0,0E0,0E0,0E0,0E0,0E0,0E0,0E0,0E0,0E0,0E0,0E0,0E0,0E0,0E0,0E0,0E0,0E0,0E0,0E0],"parents":[2147483647,0,0,1,1,2,2,3,3,4,4,5,5,6,6,7,7,8,8,9,9,10,10,11,11,12,12,13,13,14,14,15,15,16,16,17,17,18,18,19,19,20,20,21,21,22,22,23,23,24,24,25,25,26,26,27,27,28,28,29,29,30,30,31,31,32,32,33,33,34,34,35,35,36,36,37,37,38,38,39,39,40,40,41,41,42,42,43,43,44,44,45,45,46,46,47,47,48,48,49,49,50,50,51,51,52,52,53,53,54,54,55,55,56,56,57,57,58,58,59,59,61,61,62,62],"right_children":[2,4,6,8,10,12,14,16,18,20,22,24,26,28,30,32,34,36,38,40,42,44,46,48,50,52,54,56,58,60,62,64,66,68,70,72,74,76,78,80,82,84,86,88,90,92,94,96,98,100,102,104,106,108,110,112,114,116,118,120,-1,122,124,-1,-1,-1,-1,-1,-1,-1,-1,-1,-1,-1,-1,-1,-1,-1,-1,-1,-1,-1,-1,-1,-1,-1,-1,-1,-1,-1,-1,-1,-1,-1,-1,-1,-1,-1,-1,-1,-1,-1,-1,-1,-1,-1,-1,-1,-1,-1,-1,-1,-1,-1,-1,-1,-1,-1,-1,-1,-1,-1,-1,-1,-1],"split_conditions":[1.8E1,7.95E0,4.713E1,5.07E0,2.227E1,2.3E1,6.264E1,2.65E0,1.6E1,8.627769E1,4.875E1,1.2E1,3.347E1,3.347E1,8.857434E1,7.755314E1,9.2333275E1,1.568E1,1.4120416E1,5.2E1,1.4E0,1.2738099E1,1.0041354E1,1.0308831E1,2.774E1,5.9532745E1,3.928E1,9.9571085E0,5.9617786E0,2.1746502E1,9.171363E1,5.4912496E0,1.47E1,3.347E1,3.9E0,8.392703E1,5.8197544E1,8.449583E0,3.8594322E1,1.2538134E1,5.1912503E0,2.827111E2,3.1883888E1,4E1,2.2259676E1,3.6141665E0,3.1635925E2,1.9414167E1,3.0495834E0,3.1134402E2,4.52E1,4.136255E1,1.2249583E1,3.3524365E2,9.9571085E0,2.6000001E0,5E1,4.1E1,3.0071463E2,3.416468E2,-1.6613028E0,5.7628117E0,3.704E1,-1.4485776E0,-2.1627514E0,-1.8578926E0,2.2414798E-1,-1.7571778E0,4.887554E-1,2.619362E-2,1.7079049E0,-1.4771945E0,-9.106696E-1,1.7721757E0,-9.870557E-1,-6.766741E-1,-2.480915E0,6.7227483E0,1.19301416E-1,-4.5768788E-1,-9.901778E-1,-1.681508E0,4.3302484E0,3.2895604E-1,2.589642E0,-4.9535528E-1,3.122151E0,7.233047E-1,3.9235513E0,-2.560833E-2,-2.00133E0,1.3237E1,5.5828714E-1,-1.3501948E-1,6.2794805E0,9.494638E-1,-1.1395894E0,1.3902259E0,-1.2690724E0,7.412019E-1,1.5840412E0,1.9720742E0,-1.5015638E0,2.8834805E0,-8.45248E-1,2.2056968E0,1.1183516E0,2.2608097E0,5.760801E0,4.4759026E0,2.8475919E0,4.708443E0,-2.5087166E0,4.470909E0,-8.9510426E-2,2.4161074E0,9.717714E0,4.214165E0,6.274554E0,5.3835807E0,1.0332067E1,5.190441E0,1.19261055E1,-7.118212E-1,7.5261483E0],"split_indices":[5,5,5,6,6,6,6,5,6,4,7,6,5,6,4,4,4,7,0,7,1,2,2,2,5,4,6,2,2,2,4,0,7,7,6,4,3,0,4,2,0,3,2,6,2,0,3,0,0,3,7,4,0,3,2,1,5,6,3,3,0,2,7,0,0,0,0,0,0,0,0,0,0,0,0,0,0,0,0,0,0,0,0,0,0,0,0,0,0,0,0,0,0,0,0,0,0,0,0,0,0,0,0,0,0,0,0,0,0,0,0,0,0,0,0,0,0,0,0,0,0,0,0,0,0],"split_type":[0,0,0,0,0,0,0,0,0,0,0,0,0,0,0,0,0,0,0,0,0,0,0,0,0,0,0,0,0,0,0,0,0,0,0,0,0,0,0,0,0,0,0,0,0,0,0,0,0,0,0,0,0,0,0,0,0,0,0,0,0,0,0,0,0,0,0,0,0,0,0,0,0,0,0,0,0,0,0,0,0,0,0,0,0,0,0,0,0,0,0,0,0,0,0,0,0,0,0,0,0,0,0,0,0,0,0,0,0,0,0,0,0,0,0,0,0,0,0,0,0,0,0,0,0],"sum_hessian":[7.045E3,4.69E3,2.355E3,2.943E3,1.747E3,1.968E3,3.87E2,1.858E3,1.085E3,1.536E3,2.11E2,7.71E2,1.197E3,2.95E2,9.2E1,7.55E2,1.103E3,9.35E2,1.5E2,1.189E3,3.47E2,2E2,1.1E1,1.51E2,6.2E2,6.88E2,5.09E2,6.1E1,2.34E2,4.2E1,5E1,6.53E2,1.02E2,1.099E3,4E0,8.83E2,5.2E1,6.9E1,8.1E1,1.184E3,5E0,1.32E2,2.15E2,1.21E2,7.9E1,3E0,8E0,5.7E1,9.4E1,4.54E2,1.66E2,4.4E1,6.44E2,3.1E2,1.99E2,2.6E1,3.5E1,1.9E1,2.15E2,4.1E1,1E0,2.6E1,2.4E1,1.9E1,6.34E2,9.6E1,6E0,1.096E3,3E0,2E0,2E0,7.5E2,1.33E2,9E0,4.3E1,4.3E1,2.6E1,1E0,8E1,6.95E2,4.89E2,1E0,4E0,9.5E1,3.7E1,2.11E2,4E0,1E2,2.1E1,6.7E1,1.2E1,2E0,1E0,6E0,2E0,4.4E1,1.3E1,5E0,8.9E1,3.81E2,7.3E1,1.62E2,4E0,5E0,3.9E1,4.83E2,1.61E2,2.94E2,1.6E1,1.08E2,9.1E1,2.4E1,2E0,8E0,2.7E1,6E0,1.3E1,1.76E2,3.9E1,3.2E1,9E0,3E0,2.3E1,2E0,2.2E1],"tree_param":{"num_deleted":"0","num_feature":"8","num_nodes":"125","size_leaf_vector":"1"}},{"base_weights":[3.279565E-2,-2.815714E0,5.191232E0,-3.6289837E0,-1.9096106E-1,3.2225363E0,1.0350135E1,-4.387579E0,-2.4410317E0,7.054177E-1,-1.3773309E0,9.94492E-1,4.4081073E0,8.923637E0,2.0039692E1,-4.7789598E0,-3.956669E0,-4.6335885E-1,-2.6174073E0,5.111375E-1,1.7451513E1,-2.739495E0,-1.2382698E0,-1.8002753E0,1.8986645E0,4.1042776E0,1.238181E1,9.74383E0,3.647923E0,2.2455208E1,1.126375E1,-4.375774E0,-5.28182E0,-9.661512E-1,-3.9885666E0,-1.1407777E0,6.5603914E0,-2.6353846E0,2.9538617E0,-5.0626487E-2,2.5330203E0,6.471976E0,-1.0918375E0,-1.1200297E0,-7.7197123E0,1.2864707E0,-2.849151E0,1.2950029E0,4.3187423E0,2.9069448E0,5.4500437E0,1.0466285E1,1.0433048E1,8.845698E0,1.3855228E1,9.2525285E-1,1.1155087E1,2.3439081E1,-2.0025299E0,5.440574E0,1.606295E1,-1.3493761E0,8.3201236E-1,-1.7609298E0,-1.5319157E0,-8.21801E-1,6.192527E-1,-1.2707433E0,-1.0693617E0,-6.7808187E-1,3.2964617E-1,4.093663E0,4.7236037E-1,-6.230448E-1,-9.09415E-1,2.2401173E-1,-1.9387494E-1,6.4088655E-1,8.175736E0,-3.9545298E-1,5.0217156E0,-2.6267176E0,-7.014399E-2,7.4261945E-1,-1.7590057E0,-1.2890273E0,-2.954553E-1,5.8819443E-1,-1.208794E0,-6.554521E-1,1.6696424E0,1.0232462E0,-2.4769858E-1,1.7603153E0,4.0644214E-1,1.9484143E0,4.854233E0,2.3538337E0,3.799204E0,8.425539E0,3.7058823E0,2.5750115E0,-7.2080714E-1,-3.8093868E-1,4.7681346E0,7.717504E0,3.9332952E0,3.2561228E0,-9.67793E-1,7.9114753E-1,6.2303934E0],"categories":[],"categories_nodes":[],"categories_segments":[],"categories_sizes":[],"default_left":[0,0,0,0,0,0,0,0,0,0,0,0,0,0,0,0,0,0,0,0,0,0,0,0,0,0,0,0,0,0,0,0,0,0,0,0,0,0,0,0,0,0,0,0,0,0,0,0,0,0,0,0,0,0,0,0,0,0,0,0,0,0,0,0,0,0,0,0,0,0,0,0,0,0,0,0,0,0,0,0,0,0,0,0,0,0,0,0,0,0,0,0,0,0,0,0,0,0,0,0,0,0,0,0,0,0,0,0,0,0,0],"id":3,"left_children":[1,3,5,7,9,11,13,15,17,19,21,23,25,27,29,31,33,35,37,39,41,-1,43,45,47,49,51,53,55,57,59,61,63,65,67,69,71,73,-1,75,77,-1,-1,79,81,83,85,87,89,91,93,-1,95,97,99,101,103,105,-1,107,109,-1,-1,-1,-1,-1,-1,-1,-1,-1,-1,-1,-1,-1,-1,-1,-1,-1,-1,-1,-1,-1,-1,-1,-1,-1,-1,-1,-1,-1,-1,-1,-1,-1,-1,-1,-1,-1,-1,-1,-1,-1,-1,-1,-1,-1,-1,-1,-1,-1,-1],"loss_changes":[1.0354753E5,9.690535E3,2.5428516E4,3.1127656E3,1.1441661E3,4.792586E3,9.386078E3,3.3761328E2,4.7073096E2,1.9854354E3,4.879569E2,1.6004517E3,2.8200215E3,2.5823516E3,1.6125312E3,2.0051758E2,9.268164E1,5.4038226E2,3.0423438E2,6.895716E2,6.870349E2,0E0,3.4081683E2,5.0549527E2,6.9272144E2,1.8259062E3,1.5219292E3,1.8086602E3,1.68616E3,2.105379E3,4.9948657E2,5.521367E2,2.0155273E1,7.013444E1,8.984473E1,2.6072723E2,3.3177017E2,2.6820312E2,0E0,2.2653958E2,1.2363037E3,0E0,0E0,1.6109512E3,5.9996643E1,3.54539E2,3.0882605E2,1.3688362E3,7.8244104E2,1.1444434E3,9.105752E2,0E0,8.2300586E2,1.5494648E3,1.6197871E3,1.6007417E3,1.3154917E3,1.2209336E3,0E0,5.510624E2,6.400874E2,0E0,0E0,0E0,0E0,0E0,0E0,0E0,0E0,0E0,0E0,0E0,0E0,0E0,0E0,0E0,0E0,0E0,0E0,0E0,0E0,0E0,0E0,0E0,0E0,0E0,0E0,0E0,0E0,0E0,0E0,0E0,0E0,0E0,0E0,0E0,0E0,0E0,0E0,0E0,0E0,0E0,0E0,0E0,0E0,0E0,0E0,0E0,0E0,0E0,0E0],"parents":[2147483647,0,0,1,1,2,2,3,3,4,4,5,5,6,6,7,7,8,8,9,9,10,10,11,11,12,12,13,13,14,14,15,15,16,16,17,17,18,18,19,19,20,20,22,22,23,23,24,24,25,25,26,26,27,27,28,28,29,29,30,30,31,31,32,32,33,33,34,34,35,35,36,36,37,37,39,39,40,40,43,43,44,44,45,45,46,46,47,47,48,48,49,49,50,50,52,52,53,53,54,54,55,55,56,56,57,57,59,59,60,60],"right_children":[2,4,6,8,10,12,14,16,18,20,22,24,26,28,30,32,34,36,38,40,42,-1,44,46,48,50,52,54,56,58,60,62,64,66,68,70,72,74,-1,76,78,-1,-1,80,82,84,86,88,90,92,94,-1,96,98,100,102,104,106,-1,108,110,-1,-1,-1,-1,-1,-1,-1,-1,-1,-1,-1,-1,-1,-1,-1,-1,-1,-1,-1,-1,-1,-1,-1,-1,-1,-1,-1,-1,-1,-1,-1,-1,-1,-1,-1,-1,-1,-1,-1,-1,-1,-1,-1,-1,-1,-1,-1,-1,-1,-1],"split_conditions":[1.672E1,1.1E1,3.875E1,5.85E0,1.2738099E1,7.771495E1,6.588E1,3.26E0,4.9183335E0,5.358E1,6.5E-1,1.425E1,5.1E1,1.57908325E1,9.630834E0,1.5745627E1,2.8308332E0,2.88E1,7.097E1,2.267E1,1.26641655E1,-2.739495E0,5.792E1,9.021574E0,3.1134402E2,2.675E1,3.8476303E1,5.358E1,1.2249583E1,1.781909E1,1.20287485E1,1.5E1,1.08E0,1.1787499E0,4.88E0,7.789823E1,7.53E0,1.1384199E1,2.9538617E0,8.845416E0,5.792E1,6.471976E0,-1.0918375E0,5.2E1,1.1401666E1,2.342E1,1.063E1,1.8723461E1,5.3476467E1,1.3000002E1,1.6489416E1,1.0466285E1,9.0866905E1,3.0071463E2,5.7628117E0,4.2183337E0,7.5808846E1,9E1,-2.0025299E0,6.588E1,6.264E1,-1.3493761E0,8.3201236E-1,-1.7609298E0,-1.5319157E0,-8.21801E-1,6.192527E-1,-1.2707433E0,-1.0693617E0,-6.7808187E-1,3.2964617E-1,4.093663E0,4.7236037E-1,-6.230448E-1,-9.09415E-1,2.2401173E-1,-1.9387494E-1,6.4088655E-1,8.175736E0,-3.9545298E-1,5.0217156E0,-2.6267176E0,-7.014399E-2,7.4261945E-1,-1.7590057E0,-1.2890273E0,-2.954553E-1,5.8819443E-1,-1.208794E0,-6.554521E-1,1.6696424E0,1.0232462E0,-2.4769858E-1,1.7603153E0,4.0644214E-1,1.9484143E0,4.854233E0,2.3538337E0,3.799204E0,8.425539E0,3.7058823E0,2.5750115E0,-7.2080714E-1,-3.8093868E-1,4.7681346E0,7.717504E0,3.9332952E0,3.2561228E0,-9.67793E-1,7.9114753E-1,6.2303934E0],"split_indices":[5,6,5,5,2,4,6,5,0,6,5,6,6,2,0,2,0,7,7,6,0,0,6,2,3,5,3,6,0,2,0,7,5,0,7,4,6,2,0,0,7,0,0,6,0,7,6,2,4,1,2,0,4,3,2,0,3,7,0,5,5,0,0,0,0,0,0,0,0,0,0,0,0,0,0,0,0,0,0,0,0,0,0,0,0,0,0,0,0,0,0,0,0,0,0,0,0,0,0,0,0,0,0,0,0,0,0,0,0,0,0],"split_type":[0,0,0,0,0,0,0,0,0,0,0,0,0,0,0,0,0,0,0,0,0,0,0,0,0,0,0,0,0,0,0,0,0,0,0,0,0,0,0,0,0,0,0,0,0,0,0,0,0,0,0,0,0,0,0,0,0,0,0,0,0,0,0,0,0,0,0,0,0,0,0,0,0,0,0,0,0,0,0,0,0,0,0,0,0,0,0,0,0,0,0,0,0,0,0,0,0,0,0,0,0,0,0,0,0,0,0,0,0,0,0],"sum_hessian":[7.045E3,4.539E3,2.506E3,3.465E3,1.074E3,1.815E3,6.91E2,2.113E3,1.352E3,6.12E2,4.62E2,6.31E2,1.184E3,6.04E2,8.7E1,1.102E3,1.011E3,1.11E2,1.241E3,6.06E2,6E0,7E0,4.55E2,1.54E2,4.77E2,1.142E3,4.2E1,5.22E2,8.2E1,6.7E1,2E1,6.17E2,4.85E2,1.1E1,1E3,1.02E2,9E0,1.24E3,1E0,4.75E2,1.31E2,5E0,1E0,4.48E2,7E0,3.9E1,1.15E2,3.83E2,9.4E1,6.06E2,5.36E2,2E0,4E1,4.31E2,9.1E1,6.1E1,2.1E1,6.5E1,2E0,1E1,1E1,6.07E2,1E1,1.04E2,3.81E2,7E0,4E0,6.26E2,3.74E2,6.8E1,3.4E1,3E0,6E0,5.17E2,7.23E2,2.03E2,2.72E2,1.3E2,1E0,4.44E2,4E0,6E0,1E0,3.4E1,5E0,6.4E1,5.1E1,3.41E2,4.2E1,1.5E1,7.9E1,5.34E2,7.2E1,4.86E2,5E1,2.5E1,1.5E1,3.44E2,8.7E1,7E0,8.4E1,1.8E1,4.3E1,6E0,1.5E1,5.2E1,1.3E1,6E0,4E0,3E0,7E0],"tree_param":{"num_deleted":"0","num_feature":"8","num_nodes":"111","size_leaf_vector":"1"}},{"base_weights":[3.348655E-2,-1.7579625E0,4.116541E0,-2.5812E0,1.2490176E-1,3.0496213E0,9.410068E0,-2.9660778E0,-1.6514473E0,-4.1355424E-2,6.659477E0,1.1720732E0,3.8662503E0,1.2619276E1,6.837424E0,-3.3133783E0,-2.58865E0,2.18326E0,-1.7886764E0,-4.6520752E-1,1.5784018E0,1.6458647E1,2.9219353E0,7.403823E-1,5.942593E0,3.5483494E0,1.0096252E1,1.4316312E1,3.3876567E0,5.200899E0,1.3994876E1,-3.556168E0,-2.801165E0,1.0861468E0,-2.6345305E0,3.0315425E0,-1.5446446E0,-1.8943875E0,2.1060498E0,-2.4743128E-1,-3.9946902E0,1.1080062E0,1.6769278E1,2.3665665E1,-2.6829386E-1,1.0535185E0,6.7493134E0,-4.798019E0,9.811449E-1,-6.631198E0,8.433323E0,2.551919E0,4.7312684E0,2.1791292E1,7.8779526E0,1.2901319E1,2.5523304E1,6.300931E0,-1.010828E1,-2.108461E0,7.099586E0,6.370018E0,2.1689447E1,-1.1313344E0,-1.0013804E0,-5.1917577E-1,-9.1978675E-1,1.1664695E0,1.8481946E-2,-7.9840344E-1,8.697724E-1,1.0184647E0,-1.2347974E0,-1.7422297E0,-5.169863E-1,-9.639439E-1,2.8954809E0,-1.9665681E-1,2.2548774E-1,1.1549964E0,-1.4068267E0,9.3103486E-1,-1.1588306E-1,9.786966E0,2.2737358E0,7.9921026E0,8.726412E-1,4.2118397E-1,-7.927523E-1,2.05219E0,-3.994686E-1,1.7075178E-1,2.5301275E0,-1.6897298E0,1.7835376E0,-8.0145645E-1,4.0954456E-1,-2.6127152E0,-7.128249E-1,-7.984263E-1,3.307332E0,1.0651382E0,3.4866008E-1,1.3336455E0,4.154568E0,8.159886E0,5.7242966E-1,2.7122955E0,-2.501607E0,2.5744338E0,4.842624E0,1.0805653E0,8.663016E0,-2.2351263E-1,2.8916163E0,-5.1555634E-1,-3.5328271E0,2.2112572E0,-1.5570427E0,1.013986E0,2.9387684E0,2.7230265E0,-3.5981224E0,6.9783235E0,-7.5424224E-1],"categories":[],"categories_nodes":[],"categories_segments":[],"categories_sizes":[],"default_left":[0,0,0,0,0,0,0,0,0,0,0,0,0,0,0,0,0,0,0,0,0,0,0,0,0,0,0,0,0,0,0,0,0,0,0,0,0,0,0,0,0,0,0,0,0,0,0,0,0,0,0,0,0,0,0,0,0,0,0,0,0,0,0,0,0,0,0,0,0,0,0,0,0,0,0,0,0,0,0,0,0,0,0,0,0,0,0,0,0,0,0,0,0,0,0,0,0,0,0,0,0,0,0,0,0,0,0,0,0,0,0,0,0,0,0,0,0,0,0,0,0,0,0,0,0],"id":4,"left_children":[1,3,5,7,9,11,13,15,17,19,21,23,25,27,29,31,33,35,37,39,41,43,45,47,49,51,53,55,57,59,61,63,65,67,69,71,-1,73,75,77,79,81,83,85,87,89,91,93,95,97,99,101,103,105,107,109,111,113,115,117,119,121,123,-1,-1,-1,-1,-1,-1,-1,-1,-1,-1,-1,-1,-1,-1,-1,-1,-1,-1,-1,-1,-1,-1,-1,-1,-1,-1,-1,-1,-1,-1,-1,-1,-1,-1,-1,-1,-1,-1,-1,-1,-1,-1,-1,-1,-1,-1,-1,-1,-1,-1,-1,-1,-1,-1,-1,-1,-1,-1,-1,-1,-1,-1],"loss_changes":[5.1545793E4,7.5924395E3,1.2108359E4,1.214623E3,1.6201278E3,2.740004E3,2.8859297E3,3.071953E2,5.301387E2,9.996463E2,1.3070266E3,1.1159084E3,2.4338887E3,2.442457E3,2.2933105E3,1.4561426E2,1.9827148E2,2.3329735E2,4.0170703E2,8.860191E2,2.1394268E3,1.2118628E3,1.9312137E2,6.714275E2,1.4652294E3,1.3882168E3,1.3849155E3,1.7956621E3,1.085943E3,2.318748E3,2.0326284E3,2.7048828E1,1.1007007E2,4.282319E1,1.7761523E2,9.707672E1,0E0,6.200117E2,1.0745553E3,4.440774E2,3.832008E2,8.778353E2,1.0640466E3,3.547234E2,1.9590965E1,2.851634E2,8.8890625E1,2.2173428E2,6.7691254E2,5.0038605E1,1.1217563E3,8.9371045E2,1.3506562E3,9.159136E2,1.0561353E3,1.5554395E3,9.2515137E2,5.245767E2,4.972516E1,1.0606841E3,1.2907559E3,1.1029813E3,7.4318555E2,0E0,0E0,0E0,0E0,0E0,0E0,0E0,0E0,0E0,0E0,0E0,0E0,0E0,0E0,0E0,0E0,0E0,0E0,0E0,0E0,0E0,0E0,0E0,0E0,0E0,0E0,0E0,0E0,0E0,0E0,0E0,0E0,0E0,0E0,0E0,0E0,0E0,0E0,0E0,0E0,0E0,0E0,0E0,0E0,0E0,0E0,0E0,0E0,0E0,0E0,0E0,0E0,0E0,0E0,0E0,0E0,0E0,0E0,0E0,0E0,0E0,0E0],"parents":[2147483647,0,0,1,1,2,2,3,3,4,4,5,5,6,6,7,7,8,8,9,9,10,10,11,11,12,12,13,13,14,14,15,15,16,16,17,17,18,18,19,19,20,20,21,21,22,22,23,23,24,24,25,25,26,26,27,27,28,28,29,29,30,30,31,31,32,32,33,33,34,34,35,35,37,37,38,38,39,39,40,40,41,41,42,42,43,43,44,44,45,45,46,46,47,47,48,48,49,49,50,50,51,51,52,52,53,53,54,54,55,55,56,56,57,57,58,58,59,59,60,60,61,61,62,62],"right_children":[2,4,6,8,10,12,14,16,18,20,22,24,26,28,30,32,34,36,38,40,42,44,46,48,50,52,54,56,58,60,62,64,66,68,70,72,-1,74,76,78,80,82,84,86,88,90,92,94,96,98,100,102,104,106,108,110,112,114,116,118,120,122,124,-1,-1,-1,-1,-1,-1,-1,-1,-1,-1,-1,-1,-1,-1,-1,-1,-1,-1,-1,-1,-1,-1,-1,-1,-1,-1,-1,-1,-1,-1,-1,-1,-1,-1,-1,-1,-1,-1,-1,-1,-1,-1,-1,-1,-1,-1,-1,-1,-1,-1,-1,-1,-1,-1,-1,-1,-1,-1,-1,-1,-1,-1],"split_conditions":[1.987E1,9.94E0,4.875E1,6.7E0,4.52E1,7.771495E1,9.114471E0,3.53E0,2.25E0,8.857434E1,1.0041354E1,4.36E1,5.6E1,2.0000002E0,1.3355834E1,7.268954E1,2.8308332E0,2.8999996E0,3.46E1,2.3263912E1,4E1,6.41E0,1.72E1,3.83E0,4.8052937E1,3.095E1,2.463E1,9E1,8.049845E0,7.312914E1,1.2682018E1,5.787758E1,1.2157917E1,7.771331E0,9.2333275E1,4.626E1,-1.5446446E0,1.86E0,2.54279E2,1.645E1,1.015E1,1.6000001E0,1.72E1,1.3000001E0,9.726667E0,4.4225E0,1.1440979E1,2.1096123E1,2.7495835E0,7.2983406E1,2.227E1,1.0041354E1,3.4573544E2,5.130833E0,1.3818332E1,8.870804E1,5.7628117E0,5.358E1,4.996982E1,2.7495835E0,1.1592895E1,8.35232E1,8.870804E1,-1.1313344E0,-1.0013804E0,-5.1917577E-1,-9.1978675E-1,1.1664695E0,1.8481946E-2,-7.9840344E-1,8.697724E-1,1.0184647E0,-1.2347974E0,-1.7422297E0,-5.169863E-1,-9.639439E-1,2.8954809E0,-1.9665681E-1,2.2548774E-1,1.1549964E0,-1.4068267E0,9.3103486E-1,-1.1588306E-1,9.786966E0,2.2737358E0,7.9921026E0,8.726412E-1,4.2118397E-1,-7.927523E-1,2.05219E0,-3.994686E-1,1.7075178E-1,2.5301275E0,-1.6897298E0,1.7835376E0,-8.0145645E-1,4.0954456E-1,-2.6127152E0,-7.128249E-1,-7.984263E-1,3.307332E0,1.0651382E0,3.4866008E-1,1.3336455E0,4.154568E0,8.159886E0,5.7242966E-1,2.7122955E0,-2.501607E0,2.5744338E0,4.842624E0,1.0805653E0,8.663016E0,-2.2351263E-1,2.8916163E0,-5.1555634E-1,-3.5328271E0,2.2112572E0,-1.5570427E0,1.013986E0,2.9387684E0,2.7230265E0,-3.5981224E0,6.9783235E0,-7.5424224E-1],"split_indices":[5,5,5,6,7,4,2,6,7,4,2,7,6,1,0,4,0,1,6,2,6,0,5,6,3,5,7,6,2,4,2,4,0,2,4,6,0,5,3,6,5,1,7,1,0,0,2,2,0,4,6,2,3,0,0,4,2,5,3,0,2,4,4,0,0,0,0,0,0,0,0,0,0,0,0,0,0,0,0,0,0,0,0,0,0,0,0,0,0,0,0,0,0,0,0,0,0,0,0,0,0,0,0,0,0,0,0,0,0,0,0,0,0,0,0,0,0,0,0,0,0,0,0,0,0],"split_type":[0,0,0,0,0,0,0,0,0,0,0,0,0,0,0,0,0,0,0,0,0,0,0,0,0,0,0,0,0,0,0,0,0,0,0,0,0,0,0,0,0,0,0,0,0,0,0,0,0,0,0,0,0,0,0,0,0,0,0,0,0,0,0,0,0,0,0,0,0,0,0,0,0,0,0,0,0,0,0,0,0,0,0,0,0,0,0,0,0,0,0,0,0,0,0,0,0,0,0,0,0,0,0,0,0,0,0,0,0,0,0,0,0,0,0,0,0,0,0,0,0,0,0,0,0],"sum_hessian":[7.045E3,4.897E3,2.148E3,3.407E3,1.49E3,1.789E3,3.59E2,2.408E3,9.99E2,1.454E3,3.6E1,5.43E2,1.246E3,1.58E2,2.01E2,1.25E3,1.158E3,3.4E1,9.65E2,1.153E3,3.01E2,9E0,2.7E1,4.99E2,4.4E1,1.187E3,5.9E1,1.33E2,2.5E1,1.65E2,3.6E1,8.44E2,4.06E2,1.4E1,1.144E3,3.1E1,3E0,9.4E2,2.5E1,1.087E3,6.6E1,2.93E2,8E0,6E0,3E0,1.9E1,8E0,2E1,4.79E2,7E0,3.7E1,6.46E2,5.41E2,8E0,5.1E1,1.2E2,1.3E1,2.1E1,4E0,3.4E1,1.31E2,1.9E1,1.7E1,4.17E2,4.27E2,8.2E1,3.24E2,3E0,1.1E1,1.139E3,5E0,3E1,1E0,3.8E1,9.02E2,1.5E1,1E1,7.72E2,3.15E2,5E0,6.1E1,1.25E2,1.68E2,2E0,6E0,5E0,1E0,2E0,1E0,5E0,1.4E1,2E0,6E0,1.9E1,1E0,4.5E1,4.34E2,4E0,3E0,7E0,3E1,3.75E2,2.71E2,5.26E2,1.5E1,6E0,2E0,4.8E1,3E0,5.3E1,6.7E1,2E0,1.1E1,7E0,1.4E1,1E0,3E0,8E0,2.6E1,5.6E1,7.5E1,1.7E1,2E0,1.6E1,1E0],"tree_param":{"num_deleted":"0","num_feature":"8","num_nodes":"125","size_leaf_vector":"1"}},{"base_weights":[3.2177854E-2,-1.51549E0,2.4076695E0,-1.8997092E0,-2.5175485E-1,1.4475168E0,5.297123E0,-2.2446256E0,-1.4443347E0,9.505303E-1,-1.020566E0,5.106905E-1,2.197992E0,4.5138373E0,1.063092E1,-2.0400555E0,-2.6465619E0,-1.4720324E0,3.6192672E0,6.7932814E-1,2.164299E1,-4.4036546E0,-7.358227E-1,8.8610166E-1,-1.806348E0,-1.0359814E1,2.2942755E0,5.0537076E0,9.010175E-1,8.666421E0,1.5234802E1,-2.103049E0,2.8985782E0,-2.51898E0,-4.399273E0,-1.589134E0,-3.442121E-1,5.525322E-1,8.596517E0,1.1195077E1,-1.2452726E0,1.9885956E0,-4.7875886E0,1.650803E-1,-1.8689461E0,1.7310071E-1,2.3357546E0,1.3256931E0,-2.8425827E0,-3.8355193E0,-1.2476267E0,3.2274618E0,1.597621E0,-1.0221063E1,5.190075E0,-1.6618899E0,8.672834E0,4.922425E0,1.330433E1,-1.3975464E0,1.846942E1,-3.142139E-1,-6.663944E-1,1.6288851E0,-1.1266892E0,-7.634688E-1,-1.7414352E-1,-1.7387773E0,-6.878003E-1,-2.6797095E-1,-5.196604E-1,3.7364504E-1,-3.737899E-1,2.3497365E-1,-1.091841E0,1.0255132E0,3.099298E0,2.1083437E-1,-7.712071E-1,-1.6566404E0,7.020335E-1,2.0291075E-1,-4.6884367E-1,-6.197405E-1,1.5695239E0,1.5351808E-1,-4.6229976E-1,5.689668E-1,3.990525E0,-4.5078823E-1,2.710452E0,-9.6964735E-1,2.1361394E0,2.456649E-1,-8.070969E-1,8.310169E-1,2.7322977E0,2.8191483E0,4.499313E-1,-4.1713295E0,6.768608E-1,1.3736464E0,2.4124603E0,1.4046414E0,-1.2658212E0,5.206442E0,-1.1600324E0,2.9350572E0,-5.9324667E-2,-7.304526E-1,4.808693E0,-3.7976165E0,3.098843E0,6.477772E0,1.2470425E0],"categories":[],"categories_nodes":[],"categories_segments":[],"categories_sizes":[],"default_left":[0,0,0,0,0,0,0,0,0,0,0,0,0,0,0,0,0,0,0,0,0,0,0,0,0,0,0,0,0,0,0,0,0,0,0,0,0,0,0,0,0,0,0,0,0,0,0,0,0,0,0,0,0,0,0,0,0,0,0,0,0,0,0,0,0,0,0,0,0,0,0,0,0,0,0,0,0,0,0,0,0,0,0,0,0,0,0,0,0,0,0,0,0,0,0,0,0,0,0,0,0,0,0,0,0,0,0,0,0,0,0,0,0,0,0],"id":5,"left_children":[1,3,5,7,9,11,13,15,17,19,21,23,25,27,29,31,33,35,-1,37,39,41,43,45,47,49,51,53,55,57,59,61,63,65,67,69,71,73,75,-1,77,-1,79,81,83,85,87,89,91,-1,93,95,97,99,101,103,105,107,109,111,113,-1,-1,-1,-1,-1,-1,-1,-1,-1,-1,-1,-1,-1,-1,-1,-1,-1,-1,-1,-1,-1,-1,-1,-1,-1,-1,-1,-1,-1,-1,-1,-1,-1,-1,-1,-1,-1,-1,-1,-1,-1,-1,-1,-1,-1,-1,-1,-1,-1,-1,-1,-1,-1,-1],"loss_changes":[2.5908074E4,2.0713691E3,7.7049316E3,5.1067773E2,9.21603E2,1.466877E3,2.847291E3,1.4753711E2,5.4643994E2,2.1683027E3,5.824532E2,8.105537E2,1.4251255E3,1.1774209E3,6.6386914E2,3.909292E2,1.2845312E2,1.8580298E2,0E0,3.8173914E2,1.8402151E3,2.3081207E2,5.7401733E2,8.275125E2,4.256873E2,1.8294287E2,7.4311865E2,1.1507793E3,1.607889E3,1.0458267E3,1.370794E3,1.5023926E2,2.8986462E2,2.7861816E1,1.07341736E2,1.2569092E2,1.9364279E2,3.703678E2,1.8572906E1,0E0,9.5525875E0,0E0,2.5376099E2,2.78461E2,3.588626E2,3.130648E2,1.2462631E3,7.3310596E2,4.0338702E2,0E0,1.1147097E1,1.2953813E3,4.9037207E2,2.6116296E2,8.74749E2,1.0094772E3,2.244477E3,9.228525E2,1.2397715E3,7.9105817E2,8.489541E2,0E0,0E0,0E0,0E0,0E0,0E0,0E0,0E0,0E0,0E0,0E0,0E0,0E0,0E0,0E0,0E0,0E0,0E0,0E0,0E0,0E0,0E0,0E0,0E0,0E0,0E0,0E0,0E0,0E0,0E0,0E0,0E0,0E0,0E0,0E0,0E0,0E0,0E0,0E0,0E0,0E0,0E0,0E0,0E0,0E0,0E0,0E0,0E0,0E0,0E0,0E0,0E0,0E0,0E0],"parents":[2147483647,0,0,1,1,2,2,3,3,4,4,5,5,6,6,7,7,8,8,9,9,10,10,11,11,12,12,13,13,14,14,15,15,16,16,17,17,19,19,20,20,21,21,22,22,23,23,24,24,25,25,26,26,27,27,28,28,29,29,30,30,31,31,32,32,33,33,34,34,35,35,36,36,37,37,38,38,40,40,42,42,43,43,44,44,45,45,46,46,47,47,48,48,50,50,51,51,52,52,53,53,54,54,55,55,56,56,57,57,58,58,59,59,60,60],"right_children":[2,4,6,8,10,12,14,16,18,20,22,24,26,28,30,32,34,36,-1,38,40,42,44,46,48,50,52,54,56,58,60,62,64,66,68,70,72,74,76,-1,78,-1,80,82,84,86,88,90,92,-1,94,96,98,100,102,104,106,108,110,112,114,-1,-1,-1,-1,-1,-1,-1,-1,-1,-1,-1,-1,-1,-1,-1,-1,-1,-1,-1,-1,-1,-1,-1,-1,-1,-1,-1,-1,-1,-1,-1,-1,-1,-1,-1,-1,-1,-1,-1,-1,-1,-1,-1,-1,-1,-1,-1,-1,-1,-1,-1,-1,-1,-1],"split_conditions":[1.5E1,1.045E1,3.804E1,4.94E0,8.845416E0,2.094E1,6.588E1,1.693531E1,7.097E1,8.793334E0,3.42E0,8.5E0,6.28E0,1.57908325E1,9E1,1.588E1,6.8E0,8.73258E1,3.6192672E0,4.626E1,7.9932966E0,1.48E0,1.0080154E2,8.242272E1,1.614E1,7.9783966E1,9.3876505E0,1.016E1,1.71E1,2E-1,8.657052E1,1.056625E1,2.6579047E2,4.1600002E1,1.6295416E1,9.630834E0,1.1183201E1,3.572E1,4.007917E0,1.1195077E1,1E-1,1.9885956E0,2.1986542E1,8.799999E0,1.44E1,1.913426E1,4.626E1,1.970815E1,5.2E1,-3.8355193E0,1.4120416E1,4.52E1,4.136255E1,7.872501E0,1.288981E1,4.2183337E0,9.025466E1,6.253284E1,3.2266667E0,9.978751E0,9.171363E1,-3.142139E-1,-6.663944E-1,1.6288851E0,-1.1266892E0,-7.634688E-1,-1.7414352E-1,-1.7387773E0,-6.878003E-1,-2.6797095E-1,-5.196604E-1,3.7364504E-1,-3.737899E-1,2.3497365E-1,-1.091841E0,1.0255132E0,3.099298E0,2.1083437E-1,-7.712071E-1,-1.6566404E0,7.020335E-1,2.0291075E-1,-4.6884367E-1,-6.197405E-1,1.5695239E0,1.5351808E-1,-4.6229976E-1,5.689668E-1,3.990525E0,-4.5078823E-1,2.710452E0,-9.6964735E-1,2.1361394E0,2.456649E-1,-8.070969E-1,8.310169E-1,2.7322977E0,2.8191483E0,4.499313E-1,-4.1713295E0,6.768608E-1,1.3736464E0,2.4124603E0,1.4046414E0,-1.2658212E0,5.206442E0,-1.1600324E0,2.9350572E0,-5.9324667E-2,-7.304526E-1,4.808693E0,-3.7976165E0,3.098843E0,6.477772E0,1.2470425E0],"split_indices":[6,5,5,5,0,5,6,2,7,0,6,1,7,2,6,7,6,4,0,7,2,7,3,4,6,4,2,7,1,1,4,0,3,1,0,0,2,7,0,0,1,0,2,1,6,2,6,2,6,0,0,6,4,0,2,0,4,3,0,0,4,0,0,0,0,0,0,0,0,0,0,0,0,0,0,0,0,0,0,0,0,0,0,0,0,0,0,0,0,0,0,0,0,0,0,0,0,0,0,0,0,0,0,0,0,0,0,0,0,0,0,0,0,0,0],"split_type":[0,0,0,0,0,0,0,0,0,0,0,0,0,0,0,0,0,0,0,0,0,0,0,0,0,0,0,0,0,0,0,0,0,0,0,0,0,0,0,0,0,0,0,0,0,0,0,0,0,0,0,0,0,0,0,0,0,0,0,0,0,0,0,0,0,0,0,0,0,0,0,0,0,0,0,0,0,0,0,0,0,0,0,0,0,0,0,0,0,0,0,0,0,0,0,0,0,0,0,0,0,0,0,0,0,0,0,0,0,0,0,0,0,0,0],"sum_hessian":[7.045E3,4.266E3,2.779E3,3.271E3,9.95E2,2.087E3,6.92E2,1.859E3,1.412E3,3.88E2,6.07E2,9.29E2,1.158E3,6.05E2,8.7E1,1.236E3,6.23E2,1.41E3,2E0,3.84E2,4E0,4.6E1,5.61E2,8E2,1.29E2,8E0,1.15E3,5.26E2,7.9E1,6.3E1,2.4E1,1.221E3,1.5E1,5.83E2,4E1,1.277E3,1.33E2,3.79E2,5E0,2E0,2E0,1E0,4.5E1,3.13E2,2.48E2,5.37E2,2.63E2,3.2E1,9.7E1,6E0,2E0,4.9E2,6.6E2,4E0,5.22E2,6E1,1.9E1,3.6E1,2.7E1,4E0,2E1,1.24E2,1.097E3,1.1E1,4E0,5.75E2,8E0,2.3E1,1.7E1,2.19E2,1.058E3,4.8E1,8.5E1,3.6E2,1.9E1,2E0,3E0,1E0,1E0,4.1E1,4E0,2.42E2,7.1E1,2.42E2,6E0,4.49E2,8.8E1,2.54E2,9E0,2.4E1,8E0,9.4E1,3E0,1E0,1E0,4.56E2,3.4E1,7E0,6.53E2,3E0,1E0,4.32E2,9E1,1.7E1,4.3E1,1.1E1,8E0,1.8E1,1.8E1,4E0,2.3E1,2E0,2E0,1.6E1,4E0],"tree_param":{"num_deleted":"0","num_feature":"8","num_nodes":"115","size_leaf_vector":"1"}},{"base_weights":[2.8652508E-2,-1.1779106E0,1.5604538E0,-1.6120474E0,-8.503847E-1,1.1070153E0,5.0148478E0,-1.2218344E0,-1.7360971E0,3.4255035E0,-8.9222455E-1,2.996089E-1,1.816952E0,8.891079E0,4.114432E0,5.416501E-3,-1.473042E0,-1.7099166E0,-1.5756296E0,7.051144E-1,1.0562355E1,-1.0127364E0,-1.885366E-1,-2.601082E0,4.2640346E-1,7.045563E-1,2.5443134E0,-2.7639282E0,9.883667E0,2.4660056E0,6.4508924E0,-2.4400735E-1,1.7221079E0,-1.52017E0,2.0074165E0,-2.1058707E0,-1.6039426E0,-2.6520054E0,2.324915E0,4.0947657E0,-7.307937E-1,-1.129184E0,-1.0528277E-2,5.8975416E-1,-1.7942723E0,-3.335261E0,9.6283114E-1,-2.6666908E0,5.3234684E-1,9.7910154E-1,-4.5360985E0,2.230146E0,6.8164763E0,2.6981413E0,1.1164354E1,4.772696E0,-1.1999049E0,3.9482775E0,1.8891684E1,4.0064958E-1,-2.8885922E-1,-4.331393E-1,-1.2454746E0,8.868716E-1,-2.6818073E-1,-3.1868047E-1,-6.377605E-1,-4.1194737E-1,-5.251654E-1,-2.3044968E-2,-9.45504E-1,1.1003962E0,-8.6694956E-2,-3.8811007E-1,-2.3222677E-1,-1.6708256E-1,8.9059407E-1,-2.1429146E-2,1.665416E0,-1.7248201E-1,-1.3902346E0,1.6903062E0,-1.100151E0,-9.359344E-1,3.458656E0,-1.5592492E0,3.6358422E-1,2.542858E-1,-3.7937183E-2,-2.5566308E0,3.2980168E-1,-3.7616024E0,1.00714095E-1,6.399153E-1,3.235689E0,4.1648726E0,1.0372381E0,1.441574E0,-1.3567662E0,3.6178253E0,-9.116341E-1,8.5593927E-1,2.8160074E0,-1.7441298E0,9.949242E-1,6.8888583E0,8.813572E-1,6.207853E0,-2.299554E0],"categories":[],"categories_nodes":[],"categories_segments":[],"categories_sizes":[],"default_left":[0,0,0,0,0,0,0,0,0,0,0,0,0,0,0,0,0,0,0,0,0,0,0,0,0,0,0,0,0,0,0,0,0,0,0,0,0,0,0,0,0,0,0,0,0,0,0,0,0,0,0,0,0,0,0,0,0,0,0,0,0,0,0,0,0,0,0,0,0,0,0,0,0,0,0,0,0,0,0,0,0,0,0,0,0,0,0,0,0,0,0,0,0,0,0,0,0,0,0,0,0,0,0,0,0,0,0,0,0],"id":6,"left_children":[1,3,5,7,9,11,13,15,17,19,21,23,25,27,29,31,33,35,-1,37,39,41,43,45,47,49,51,-1,53,55,57,59,-1,61,63,65,67,69,71,-1,-1,73,75,77,79,81,83,85,87,89,91,93,95,97,99,101,103,105,107,-1,-1,-1,-1,-1,-1,-1,-1,-1,-1,-1,-1,-1,-1,-1,-1,-1,-1,-1,-1,-1,-1,-1,-1,-1,-1,-1,-1,-1,-1,-1,-1,-1,-1,-1,-1,-1,-1,-1,-1,-1,-1,-1,-1,-1,-1,-1,-1,-1,-1],"loss_changes":[1.302436E4,5.591465E2,4.857983E3,7.987793E1,4.0540796E2,1.5734832E3,1.2198975E3,1.2702539E2,1.0912012E2,4.196826E2,1.8874963E2,4.7408948E2,1.1803228E3,1.2950479E3,1.1164282E3,1.02961334E2,5.9148804E1,5.0122314E1,0E0,9.860937E1,2.7399365E2,2.2196045E2,4.097196E2,1.4450504E2,4.0546497E2,8.375048E2,1.169939E3,0E0,5.5883154E2,1.4770922E3,3.692686E3,7.963115E1,0E0,6.193286E1,1.6407024E1,3.2930908E0,3.1769531E1,7.4784355E0,4.318782E1,0E0,0E0,9.854419E1,3.2559787E2,7.253992E2,3.678459E2,1.546312E2,4.6733725E2,4.087584E2,2.4789655E2,6.3883044E2,1.1348337E3,6.6148584E2,1.376176E3,1.8909439E2,7.2313086E2,9.2090283E2,1.436242E3,1.8922357E3,1.1152773E3,0E0,0E0,0E0,0E0,0E0,0E0,0E0,0E0,0E0,0E0,0E0,0E0,0E0,0E0,0E0,0E0,0E0,0E0,0E0,0E0,0E0,0E0,0E0,0E0,0E0,0E0,0E0,0E0,0E0,0E0,0E0,0E0,0E0,0E0,0E0,0E0,0E0,0E0,0E0,0E0,0E0,0E0,0E0,0E0,0E0,0E0,0E0,0E0,0E0,0E0],"parents":[2147483647,0,0,1,1,2,2,3,3,4,4,5,5,6,6,7,7,8,8,9,9,10,10,11,11,12,12,13,13,14,14,15,15,16,16,17,17,19,19,20,20,21,21,22,22,23,23,24,24,25,25,26,26,28,28,29,29,30,30,31,31,33,33,34,34,35,35,36,36,37,37,38,38,41,41,42,42,43,43,44,44,45,45,46,46,47,47,48,48,49,49,50,50,51,51,52,52,53,53,54,54,55,55,56,56,57,57,58,58],"right_children":[2,4,6,8,10,12,14,16,18,20,22,24,26,28,30,32,34,36,-1,38,40,42,44,46,48,50,52,-1,54,56,58,60,-1,62,64,66,68,70,72,-1,-1,74,76,78,80,82,84,86,88,90,92,94,96,98,100,102,104,106,108,-1,-1,-1,-1,-1,-1,-1,-1,-1,-1,-1,-1,-1,-1,-1,-1,-1,-1,-1,-1,-1,-1,-1,-1,-1,-1,-1,-1,-1,-1,-1,-1,-1,-1,-1,-1,-1,-1,-1,-1,-1,-1,-1,-1,-1,-1,-1,-1,-1,-1],"split_conditions":[1.3E1,4.5E0,4.875E1,1.1384199E1,2.7666667E-1,2.152E1,7.145796E0,1.26641655E1,9.8E0,8.489806E1,1.517E1,3.48E0,8.242272E1,2.117E1,8.857434E1,9.025466E1,1.113E1,1.6E0,-1.5756296E0,7.2415306E1,3.416468E2,1.4E1,2.023E1,2.2E0,5.027661E1,7.5E0,5.6E1,-2.7639282E0,5.495161E0,5.358E1,6.588E1,2.97E0,1.7221079E0,9E0,3E-1,5.4912496E0,9.330885E1,9.19939E0,1.44E1,4.0947657E0,-7.307937E-1,7.937067E1,3.1001358E2,3.039E1,1.9000002E0,1.48E0,9.774628E1,1.782E1,1.1000001E0,6.28E0,1.3355834E1,2.6974186E1,4.1E1,7.8E1,9E1,7E-1,8.845416E0,1.568E1,9E0,4.0064958E-1,-2.8885922E-1,-4.331393E-1,-1.2454746E0,8.868716E-1,-2.6818073E-1,-3.1868047E-1,-6.377605E-1,-4.1194737E-1,-5.251654E-1,-2.3044968E-2,-9.45504E-1,1.1003962E0,-8.6694956E-2,-3.8811007E-1,-2.3222677E-1,-1.6708256E-1,8.9059407E-1,-2.1429146E-2,1.665416E0,-1.7248201E-1,-1.3902346E0,1.6903062E0,-1.100151E0,-9.359344E-1,3.458656E0,-1.5592492E0,3.6358422E-1,2.542858E-1,-3.7937183E-2,-2.5566308E0,3.2980168E-1,-3.7616024E0,1.00714095E-1,6.399153E-1,3.235689E0,4.1648726E0,1.0372381E0,1.441574E0,-1.3567662E0,3.6178253E0,-9.116341E-1,8.5593927E-1,2.8160074E0,-1.7441298E0,9.949242E-1,6.8888583E0,8.813572E-1,6.207853E0,-2.299554E0],"split_indices":[5,6,5,2,0,6,2,0,5,4,6,6,4,7,4,4,5,5,0,3,3,7,7,1,4,1,6,0,2,7,7,5,0,5,1,0,3,2,6,0,0,4,3,6,1,7,3,7,1,7,0,2,7,7,7,1,0,7,1,0,0,0,0,0,0,0,0,0,0,0,0,0,0,0,0,0,0,0,0,0,0,0,0,0,0,0,0,0,0,0,0,0,0,0,0,0,0,0,0,0,0,0,0,0,0,0,0,0,0],"split_type":[0,0,0,0,0,0,0,0,0,0,0,0,0,0,0,0,0,0,0,0,0,0,0,0,0,0,0,0,0,0,0,0,0,0,0,0,0,0,0,0,0,0,0,0,0,0,0,0,0,0,0,0,0,0,0,0,0,0,0,0,0,0,0,0,0,0,0,0,0,0,0,0,0,0,0,0,0,0,0,0,0,0,0,0,0,0,0,0,0,0,0,0,0,0,0,0,0,0,0,0,0,0,0,0,0,0,0,0,0],"sum_hessian":[7.045E3,3.941E3,3.104E3,1.693E3,2.248E3,2.745E3,3.59E2,4.11E2,1.282E3,2.1E1,2.227E3,1.285E3,1.46E3,6.6E1,2.93E2,7E1,3.41E2,1.274E3,8E0,1.6E1,5E0,1.901E3,3.26E2,5.3E1,1.232E3,5.78E2,8.82E2,3E0,6.3E1,1.73E2,1.2E2,6.8E1,2E0,3.37E2,4E0,2.65E2,1.009E3,5E0,1.1E1,4E0,1E0,1.703E3,1.98E2,2.2E2,1.06E2,4.4E1,9E0,4E1,1.192E3,5.5E2,2.8E1,8.23E2,5.9E1,1E1,5.3E1,1.06E2,6.7E1,1.01E2,1.9E1,2.1E1,4.7E1,3.29E2,8E0,3E0,1E0,6E0,2.59E2,3.96E2,6.13E2,1E0,4E0,7E0,4E0,1.162E3,5.41E2,1.68E2,3E1,1.95E2,2.5E1,7.5E1,3.1E1,1E0,4.3E1,7E0,2E0,2.4E1,1.6E1,8.06E2,3.86E2,6E0,5.44E2,1E1,1.8E1,8.15E2,8E0,1.8E1,4.1E1,8E0,2E0,5E1,3E0,7.6E1,3E1,3.3E1,3.4E1,4E0,9.7E1,1.8E1,1E0],"tree_param":{"num_deleted":"0","num_feature":"8","num_nodes":"109","size_leaf_vector":"1"}},{"base_weights":[2.301591E-2,-4.7538543E-1,1.9269478E0,-8.672947E-1,3.0428404E-1,1.5011531E0,3.9851959E0,-1.0663074E0,-4.9602523E-1,7.295978E-2,2.1216426E0,1.8916335E0,-8.2576257E-1,5.524374E0,1.7348702E0,-1.0516357E0,-2.3818398E0,-5.7956755E-1,1.1521953E0,-1.1378394E-1,3.291948E0,9.710648E0,9.074196E-1,-5.780944E-1,2.0843801E0,-2.0869446E0,5.8699765E0,8.685802E-2,6.373307E0,-3.4322968E0,4.8084803E0,-1.0811098E0,5.4880495E0,-5.5275965E-1,-5.987532E0,1.1661215E1,2.4207169E-1,-4.7682586E0,-7.183251E-2,2.4667892E0,1.1544622E1,1.9413261E1,5.741031E0,-9.120676E-1,3.9979064E0,4.522455E0,-3.3208292E0,-5.0007586E0,2.1789415E0,-8.1879145E-1,-8.006017E0,-3.659825E0,8.100795E0,-2.7833292E0,5.0988283E0,6.9301453E0,-2.845532E0,4.046252E0,-4.7114077E0,7.74122E0,-1.9355263E-1,-2.649367E-1,-4.2920288E-1,-7.983374E-1,3.8167646E0,1.299413E0,-1.7405862E-1,-5.600692E-1,-2.2743378E0,1.1158621E0,4.7147455E0,1.8672812E0,-9.184976E-2,-1.7862165E0,4.6930408E-1,1.5921459E-2,-4.783254E-1,2.4723963E-1,1.6661266E0,-4.1772655E-1,4.0775065E0,9.621593E0,1.621091E0,7.606359E-1,3.3101587E0,1.4493891E0,-3.8077888E-1,4.9382963E0,7.5789064E-1,1.6028535E0,-2.5211535E0,-1.2018125E0,1.0941874E0,-6.20203E-1,-2.7842264E0,2.5900023E0,6.262081E-1,-4.728467E-1,1.7132748E0,-3.5821846E0,-7.261805E-1,1.0572197E0,-2.439836E0,3.000343E0,-1.0278442E0,5.4601175E-1,-2.294011E0,2.0626187E0,4.8102358E-1,-2.0710938E0,2.166198E0,-2.0351377E0,8.366027E-1,8.0389655E-1,-2.382438E0,9.750095E-1,3.3344274E0,1.7089788E0,-1.8206438E0],"categories":[],"categories_nodes":[],"categories_segments":[],"categories_sizes":[],"default_left":[0,0,0,0,0,0,0,0,0,0,0,0,0,0,0,0,0,0,0,0,0,0,0,0,0,0,0,0,0,0,0,0,0,0,0,0,0,0,0,0,0,0,0,0,0,0,0,0,0,0,0,0,0,0,0,0,0,0,0,0,0,0,0,0,0,0,0,0,0,0,0,0,0,0,0,0,0,0,0,0,0,0,0,0,0,0,0,0,0,0,0,0,0,0,0,0,0,0,0,0,0,0,0,0,0,0,0,0,0,0,0,0,0,0,0,0,0,0,0],"id":7,"left_children":[1,3,5,7,9,11,13,15,17,19,21,23,25,27,29,31,-1,33,35,37,39,41,43,45,47,49,51,53,55,57,59,61,63,65,67,69,71,73,75,77,79,81,83,85,87,89,91,93,95,97,99,101,103,105,107,109,111,-1,113,115,117,-1,-1,-1,-1,-1,-1,-1,-1,-1,-1,-1,-1,-1,-1,-1,-1,-1,-1,-1,-1,-1,-1,-1,-1,-1,-1,-1,-1,-1,-1,-1,-1,-1,-1,-1,-1,-1,-1,-1,-1,-1,-1,-1,-1,-1,-1,-1,-1,-1,-1,-1,-1,-1,-1,-1,-1,-1,-1],"loss_changes":[6.6870225E3,1.706815E3,1.2753013E3,2.7411035E2,7.855711E2,1.1037119E3,8.5632886E2,2.3558447E2,1.795351E2,9.976423E2,1.9354994E3,4.9580127E2,1.4900458E3,6.8262695E2,1.6523352E3,4.7142554E2,0E0,1.76026E2,5.997411E2,3.0602335E2,5.912105E2,1.0055017E3,1.032674E3,1.0782168E3,6.567573E2,1.1043755E3,6.249068E2,3.162829E2,6.767954E2,9.075951E2,9.5502637E2,1.6518604E2,6.823634E2,1.6760074E2,2.5246506E1,1.0254614E2,1.9540593E2,1.1444272E2,2.9600012E2,4.2137244E2,2.307893E2,1.2454456E3,3.4528906E2,2.4410654E2,1.2055839E3,3.3122485E2,2.5334338E2,1.440286E2,5.4470703E2,6.172812E2,5.4248193E2,2.2146008E2,5.380853E2,3.273479E2,3.8654663E1,5.361382E2,1.9642955E2,0E0,9.0460046E2,5.850757E2,8.9972534E2,0E0,0E0,0E0,0E0,0E0,0E0,0E0,0E0,0E0,0E0,0E0,0E0,0E0,0E0,0E0,0E0,0E0,0E0,0E0,0E0,0E0,0E0,0E0,0E0,0E0,0E0,0E0,0E0,0E0,0E0,0E0,0E0,0E0,0E0,0E0,0E0,0E0,0E0,0E0,0E0,0E0,0E0,0E0,0E0,0E0,0E0,0E0,0E0,0E0,0E0,0E0,0E0,0E0,0E0,0E0,0E0,0E0,0E0],"parents":[2147483647,0,0,1,1,2,2,3,3,4,4,5,5,6,6,7,7,8,8,9,9,10,10,11,11,12,12,13,13,14,14,15,15,17,17,18,18,19,19,20,20,21,21,22,22,23,23,24,24,25,25,26,26,27,27,28,28,29,29,30,30,31,31,32,32,33,33,34,34,35,35,36,36,37,37,38,38,39,39,40,40,41,41,42,42,43,43,44,44,45,45,46,46,47,47,48,48,49,49,50,50,51,51,52,52,53,53,54,54,55,55,56,56,58,58,59,59,60,60],"right_children":[2,4,6,8,10,12,14,16,18,20,22,24,26,28,30,32,-1,34,36,38,40,42,44,46,48,50,52,54,56,58,60,62,64,66,68,70,72,74,76,78,80,82,84,86,88,90,92,94,96,98,100,102,104,106,108,110,112,-1,114,116,118,-1,-1,-1,-1,-1,-1,-1,-1,-1,-1,-1,-1,-1,-1,-1,-1,-1,-1,-1,-1,-1,-1,-1,-1,-1,-1,-1,-1,-1,-1,-1,-1,-1,-1,-1,-1,-1,-1,-1,-1,-1,-1,-1,-1,-1,-1,-1,-1,-1,-1,-1,-1,-1,-1,-1,-1,-1,-1],"split_conditions":[2.675E1,1.147E1,5.358E1,6.18E0,3.132E1,1.6267857E1,2.7319336E2,4.626E1,2.4408424E1,3.46E1,7.42159E0,1.755E1,5E1,7.168726E1,2.9762762E2,3.46E1,-2.3818398E0,2.3469128E1,5.6808333E0,3.9944805E1,2.463E1,8.870804E1,8.589541E1,1.5E1,1.095E1,4E1,3.132E1,1.4417988E1,1.6957914E1,6.526397E1,9.9571085E0,1.6267857E1,2.54279E2,1.08E0,5.4912496E0,1E-1,1.8699121E1,2.227E1,1.5200002E1,4.52E1,6.649384E1,2.2E1,7.10031E0,1.1787499E0,1.302E1,5.0999994E0,9.38786E1,1.0308831E1,-2.5458336E-1,9.284933E1,9.287085E0,5.358E1,1.284125E1,1.0703569E1,5.939E1,1.805E1,8.731391E0,4.046252E0,6.601363E0,6.588E1,4.2183337E0,-2.649367E-1,-4.2920288E-1,-7.983374E-1,3.8167646E0,1.299413E0,-1.7405862E-1,-5.600692E-1,-2.2743378E0,1.1158621E0,4.7147455E0,1.8672812E0,-9.184976E-2,-1.7862165E0,4.6930408E-1,1.5921459E-2,-4.783254E-1,2.4723963E-1,1.6661266E0,-4.1772655E-1,4.0775065E0,9.621593E0,1.621091E0,7.606359E-1,3.3101587E0,1.4493891E0,-3.8077888E-1,4.9382963E0,7.5789064E-1,1.6028535E0,-2.5211535E0,-1.2018125E0,1.0941874E0,-6.20203E-1,-2.7842264E0,2.5900023E0,6.262081E-1,-4.728467E-1,1.7132748E0,-3.5821846E0,-7.261805E-1,1.0572197E0,-2.439836E0,3.000343E0,-1.0278442E0,5.4601175E-1,-2.294011E0,2.0626187E0,4.8102358E-1,-2.0710938E0,2.166198E0,-2.0351377E0,8.366027E-1,8.0389655E-1,-2.382438E0,9.750095E-1,3.3344274E0,1.7089788E0,-1.8206438E0],"split_indices":[5,5,5,5,6,2,3,6,2,7,2,6,7,4,3,6,0,2,0,4,5,4,4,7,7,7,5,2,0,4,2,2,3,7,0,1,3,7,1,7,4,5,2,0,5,1,4,2,0,4,0,7,0,2,5,7,2,0,2,5,0,0,0,0,0,0,0,0,0,0,0,0,0,0,0,0,0,0,0,0,0,0,0,0,0,0,0,0,0,0,0,0,0,0,0,0,0,0,0,0,0,0,0,0,0,0,0,0,0,0,0,0,0,0,0,0,0,0,0],"split_type":[0,0,0,0,0,0,0,0,0,0,0,0,0,0,0,0,0,0,0,0,0,0,0,0,0,0,0,0,0,0,0,0,0,0,0,0,0,0,0,0,0,0,0,0,0,0,0,0,0,0,0,0,0,0,0,0,0,0,0,0,0,0,0,0,0,0,0,0,0,0,0,0,0,0,0,0,0,0,0,0,0,0,0,0,0,0,0,0,0,0,0,0,0,0,0,0,0,0,0,0,0,0,0,0,0,0,0,0,0,0,0,0,0,0,0,0,0,0,0],"sum_hessian":[7.045E3,5.584E3,1.461E3,3.716E3,1.868E3,1.212E3,2.49E2,2.418E3,1.298E3,1.658E3,2.1E2,1.038E3,1.74E2,1.47E2,1.02E2,2.414E3,4E0,1.236E3,6.2E1,1.568E3,9E1,2.8E1,1.82E2,7.5E1,9.63E2,1.47E2,2.7E1,2E1,1.27E2,3.8E1,6.4E1,2.404E3,1E1,1.231E3,5E0,4E0,5.8E1,1.3E1,1.555E3,8.3E1,7E0,7E0,2.1E1,1.15E2,6.7E1,2.6E1,4.9E1,1.2E1,9.51E2,1.22E2,2.5E1,5E0,2.2E1,1.3E1,7E0,1.2E2,7E0,2E0,3.6E1,4E1,2.4E1,1.537E3,8.67E2,5E0,5E0,6E0,1.225E3,2E0,3E0,2E0,2E0,4E0,5.4E1,1.1E1,2E0,1.438E3,1.17E2,5.5E1,2.8E1,1E0,6E0,3E0,4E0,1.4E1,7E0,6E0,1.09E2,6E0,6.1E1,2.5E1,1E0,4.5E1,4E0,8E0,4E0,1.2E1,9.39E2,1.1E2,1.2E1,1.4E1,1.1E1,2E0,3E0,1.9E1,3E0,7E0,6E0,4E0,3E0,2E0,1.18E2,4E0,3E0,1.1E1,2.5E1,1.8E1,2.2E1,1.2E1,1.2E1],"tree_param":{"num_deleted":"0","num_feature":"8","num_nodes":"119","size_leaf_vector":"1"}},{"base_weights":[2.0990178E-2,-2.8944576E-1,1.5290257E0,-6.3146734E-1,2.508829E-1,3.3476899E0,1.1760341E0,-2.0164178E-1,-7.625988E-1,7.170956E-1,5.685713E-3,1.6530893E0,5.7122746E0,-6.8757024E0,1.2391456E0,-5.402166E-1,5.2845234E-1,-1.2428802E0,-6.940981E-1,6.4847535E-1,5.488938E0,-2.363988E0,1.2801987E-1,2.8444693E0,-2.150287E0,7.8720117E0,2.3322935E0,-9.798159E0,2.0372233E0,4.7034483E0,1.0864507E0,-5.7476336E-1,4.5177455E0,1.0026176E0,-1.152138E0,-1.0864377E0,-2.4988828E0,-7.328518E-1,4.699579E-1,2.5686386E0,2.7754405E-1,-8.276866E-1,-6.686756E0,6.64071E-1,-5.3630936E-1,1.501867E0,8.363463E0,-9.206923E0,-5.9055924E-1,8.740801E0,1.8889046E-1,-6.437445E0,4.5195484E0,-3.2706401E0,-4.761466E-1,3.380565E0,6.232222E0,-2.4242625E0,1.3022493E0,8.940037E-2,-2.1850099E-1,2.0455587E0,-3.5769045E-1,2.0365286E-1,1.3801169E0,-2.511036E-1,-2.0266454E0,-3.1327215E-1,-9.0456915E-1,-3.9723188E-1,-8.8349295E-1,-2.119769E-1,-5.9720826E-1,8.268498E-1,-2.8180572E-1,6.2032837E-1,9.776748E0,4.7616556E-1,-1.1974717E-1,-5.346987E-1,3.2247493E-1,-2.4211408E-1,-2.618702E0,1.4183101E-1,2.00828E0,-1.4147041E0,-1.0259924E-1,1.0677176E0,-4.4905084E-1,7.448511E0,1.7347902E0,-3.2979145E0,-3.0936357E-1,-2.6653073E0,4.5372546E-1,2.9946935E0,8.410673E-1,-7.7532375E-1,2.1083107E0,1.3156701E-2,-3.3928154E0,-5.5349475E-1,2.3412938E0,5.401016E-1,4.2246246E0,-3.1270561E0,-4.825448E-1,2.6025265E-1,8.270903E-1],"categories":[],"categories_nodes":[],"categories_segments":[],"categories_sizes":[],"default_left":[0,0,0,0,0,0,0,0,0,0,0,0,0,0,0,0,0,0,0,0,0,0,0,0,0,0,0,0,0,0,0,0,0,0,0,0,0,0,0,0,0,0,0,0,0,0,0,0,0,0,0,0,0,0,0,0,0,0,0,0,0,0,0,0,0,0,0,0,0,0,0,0,0,0,0,0,0,0,0,0,0,0,0,0,0,0,0,0,0,0,0,0,0,0,0,0,0,0,0,0,0,0,0,0,0,0,0,0,0],"id":8,"left_children":[1,3,5,7,9,11,13,15,17,19,21,23,25,27,29,31,33,35,37,39,-1,41,43,45,47,49,51,53,-1,55,57,59,61,63,65,67,69,71,73,75,77,79,81,83,85,87,89,91,93,95,97,99,101,-1,-1,103,-1,105,107,-1,-1,-1,-1,-1,-1,-1,-1,-1,-1,-1,-1,-1,-1,-1,-1,-1,-1,-1,-1,-1,-1,-1,-1,-1,-1,-1,-1,-1,-1,-1,-1,-1,-1,-1,-1,-1,-1,-1,-1,-1,-1,-1,-1,-1,-1,-1,-1,-1,-1],"loss_changes":[3.2990164E3,1.0801533E3,7.683567E2,2.015719E2,2.5903156E2,7.7192725E2,5.212517E2,2.0743196E2,8.93479E1,9.30256E2,4.3108218E2,5.272121E2,5.729297E2,3.8605347E2,5.2492944E2,1.0272037E2,2.1312454E2,6.4289E1,1.0870203E2,5.541287E2,0E0,4.7926392E2,5.0390195E2,6.395029E2,3.027428E2,3.2542456E2,6.6208887E2,4.614978E1,0E0,8.2267334E2,7.3121716E2,7.661598E1,6.068006E1,2.3916953E2,9.8525406E1,2.1675293E1,1.5490784E1,7.539661E1,2.5390317E2,1.8272249E3,5.802466E2,1.0181266E2,2.2110413E2,9.0009033E2,5.1163538E2,4.494886E2,5.788096E2,6.167804E1,4.3203693E2,2.9634473E2,1.3195906E2,2.215315E2,5.788603E2,0E0,0E0,6.510802E2,0E0,3.4866946E2,5.705853E2,0E0,0E0,0E0,0E0,0E0,0E0,0E0,0E0,0E0,0E0,0E0,0E0,0E0,0E0,0E0,0E0,0E0,0E0,0E0,0E0,0E0,0E0,0E0,0E0,0E0,0E0,0E0,0E0,0E0,0E0,0E0,0E0,0E0,0E0,0E0,0E0,0E0,0E0,0E0,0E0,0E0,0E0,0E0,0E0,0E0,0E0,0E0,0E0,0E0,0E0],"parents":[2147483647,0,0,1,1,2,2,3,3,4,4,5,5,6,6,7,7,8,8,9,9,10,10,11,11,12,12,13,13,14,14,15,15,16,16,17,17,18,18,19,19,21,21,22,22,23,23,24,24,25,25,26,26,27,27,29,29,30,30,31,31,32,32,33,33,34,34,35,35,36,36,37,37,38,38,39,39,40,40,41,41,42,42,43,43,44,44,45,45,46,46,47,47,48,48,49,49,50,50,51,51,52,52,55,55,57,57,58,58],"right_children":[2,4,6,8,10,12,14,16,18,20,22,24,26,28,30,32,34,36,38,40,-1,42,44,46,48,50,52,54,-1,56,58,60,62,64,66,68,70,72,74,76,78,80,82,84,86,88,90,92,94,96,98,100,102,-1,-1,104,-1,106,108,-1,-1,-1,-1,-1,-1,-1,-1,-1,-1,-1,-1,-1,-1,-1,-1,-1,-1,-1,-1,-1,-1,-1,-1,-1,-1,-1,-1,-1,-1,-1,-1,-1,-1,-1,-1,-1,-1,-1,-1,-1,-1,-1,-1,-1,-1,-1,-1,-1,-1],"split_conditions":[3E1,1.1E1,7.145796E0,1.0308831E1,6.6370835E0,4.1E1,6.8E0,7.897194E1,5.0667248E1,3.3127823E1,7.0829167E0,4.52E1,2.9170547E2,8.42287E1,1.5E1,2.638E1,4.1E0,8.75E0,2.023E1,1.127E1,5.488938E0,2.094E1,2.0656499E2,9.535324E1,4.942631E0,9E1,3.608E1,8.325338E1,2.0372233E0,3.4573544E2,1.755E1,7.5170207E0,8.647496E0,2.189E1,1.839E1,7.85E0,1.7E0,1.7E1,9.5520645E1,6.5329165E0,9.028754E0,2.772486E2,1.909E1,2.823E1,2.3573883E2,9.1953926E1,3.9162502E0,4.875E1,2.385E1,9.978751E0,2.4852156E2,4.042E1,3.1001358E2,-3.2706401E0,-4.761466E-1,4.875E1,6.232222E0,7.5170207E0,1.2589166E1,8.940037E-2,-2.1850099E-1,2.0455587E0,-3.5769045E-1,2.0365286E-1,1.3801169E0,-2.511036E-1,-2.0266454E0,-3.1327215E-1,-9.0456915E-1,-3.9723188E-1,-8.8349295E-1,-2.119769E-1,-5.9720826E-1,8.268498E-1,-2.8180572E-1,6.2032837E-1,9.776748E0,4.7616556E-1,-1.1974717E-1,-5.346987E-1,3.2247493E-1,-2.4211408E-1,-2.618702E0,1.4183101E-1,2.00828E0,-1.4147041E0,-1.0259924E-1,1.0677176E0,-4.4905084E-1,7.448511E0,1.7347902E0,-3.2979145E0,-3.0936357E-1,-2.6653073E0,4.5372546E-1,2.9946935E0,8.410673E-1,-7.7532375E-1,2.1083107E0,1.3156701E-2,-3.3928154E0,-5.5349475E-1,2.3412938E0,5.401016E-1,4.2246246E0,-3.1270561E0,-4.825448E-1,2.6025265E-1,8.270903E-1],"split_indices":[5,6,2,2,0,7,7,4,4,2,0,5,3,4,7,5,1,7,7,7,0,5,3,4,2,5,6,4,0,3,6,2,2,7,5,6,5,5,3,0,2,3,6,5,3,4,0,5,7,0,3,5,3,0,0,5,0,2,0,0,0,0,0,0,0,0,0,0,0,0,0,0,0,0,0,0,0,0,0,0,0,0,0,0,0,0,0,0,0,0,0,0,0,0,0,0,0,0,0,0,0,0,0,0,0,0,0,0,0],"split_type":[0,0,0,0,0,0,0,0,0,0,0,0,0,0,0,0,0,0,0,0,0,0,0,0,0,0,0,0,0,0,0,0,0,0,0,0,0,0,0,0,0,0,0,0,0,0,0,0,0,0,0,0,0,0,0,0,0,0,0,0,0,0,0,0,0,0,0,0,0,0,0,0,0,0,0,0,0,0,0,0,0,0,0,0,0,0,0,0,0,0,0,0,0,0,0,0,0,0,0,0,0,0,0,0,0,0,0,0,0],"sum_hessian":[7.045E3,5.843E3,1.202E3,3.578E3,2.265E3,1.94E2,1.008E3,8.37E2,2.741E3,7.8E2,1.485E3,1.14E2,8E1,7E0,1.001E3,5.72E2,2.65E2,3.4E2,2.401E3,7.78E2,2E0,7.2E1,1.413E3,8.7E1,2.7E1,4.8E1,3.2E1,6E0,1E0,4.1E1,9.6E2,5.69E2,3E0,2.07E2,5.8E1,3.04E2,3.6E1,2.324E3,7.7E1,1.25E2,6.53E2,5.4E1,1.8E1,7.82E2,6.31E2,7.1E1,1.6E1,4E0,2.3E1,4.3E1,5E0,6E0,2.6E1,5E0,1E0,3.9E1,2E0,5.5E1,9.05E2,8.5E1,4.84E2,2E0,1E0,1.91E2,1.6E1,5.6E1,2E0,2.99E2,5E0,1.1E1,2.5E1,2.278E3,4.6E1,2.9E1,4.8E1,1.24E2,1E0,2.22E2,4.31E2,3.6E1,1.8E1,5E0,1.3E1,7.59E2,2.3E1,2.7E1,6.04E2,4.2E1,2.9E1,1E0,1.5E1,3E0,1E0,4E0,1.9E1,3.5E1,8E0,4E0,1E0,3E0,3E0,9E0,1.7E1,3.5E1,4E0,4E0,5.1E1,6.98E2,2.07E2],"tree_param":{"num_deleted":"0","num_feature":"8","num_nodes":"109","size_leaf_vector":"1"}},{"base_weights":[1.8415697E-2,-1.9204319E-1,1.260538E0,-4.5204127E-1,3.0506045E-1,2.7330682E0,5.690072E-1,-4.6001118E-1,4.872816E0,-1.6300501E-1,5.934809E-1,3.3768566E0,-2.0911405E0,1.7526538E0,-4.846652E-1,-1.068556E0,-4.13317E-1,-2.3048909E0,2.7113678E0,1.2653977E0,-4.8336935E-1,7.47254E-1,-1.474438E0,2.6162503E0,7.125384E0,9.198025E0,-3.287405E0,2.6783308E-1,4.392862E0,7.1900773E0,-8.075848E-1,-9.140411E-1,-3.5705802E0,-4.243536E-1,2.305697E0,-1.4119864E-1,-8.9600235E-1,7.0046556E-1,7.468356E0,-2.892653E-1,-3.497008E0,4.9972814E-1,2.9770277E0,1.4235032E0,-5.585693E0,-3.4748013E0,3.0358987E0,1.087563E1,3.2401319E0,3.3026457E0,5.6484663E-1,-6.905501E0,-1.1906278E0,-8.18998E-1,4.0776052E0,6.735485E0,1.6789666E0,8.648657E0,-4.5813802E-1,-1.391668E-1,-4.5308194E0,-2.5600582E-1,-1.7849809E0,1.994934E-1,-1.666886E0,-1.1974015E-1,-5.310303E-1,2.689497E0,-2.7925885E-1,5.4491216E-1,-4.64075E-1,2.2133458E-1,3.2224264E0,-4.9288154E-2,-1.944747E0,-2.738887E0,-9.8868355E-2,9.707483E-2,1.1876483E0,7.0596737E-1,5.018728E0,-1.2189502E0,1.0491782E0,-8.3253145E-1,-2.856865E0,3.9995606E0,-2.0484092E0,1.6016238E0,5.137986E-1,3.59444E0,-2.1837893E0,3.7419088E0,9.247682E-2,-8.4492135E-1,-3.362014E0,5.5888003E-1,-1.3198302E0,7.1683586E-1,-5.4931617E-1,1.8284478E0,-1.9554592E0,2.32399E0,-3.5534635E-1,-7.9560554E-1,1.3678107E0,1.2804065E0,4.441221E0,1.6078932E0,-2.0297693E-1,-2.1701424E0,2.4872904E-1],"categories":[],"categories_nodes":[],"categories_segments":[],"categories_sizes":[],"default_left":[0,0,0,0,0,0,0,0,0,0,0,0,0,0,0,0,0,0,0,0,0,0,0,0,0,0,0,0,0,0,0,0,0,0,0,0,0,0,0,0,0,0,0,0,0,0,0,0,0,0,0,0,0,0,0,0,0,0,0,0,0,0,0,0,0,0,0,0,0,0,0,0,0,0,0,0,0,0,0,0,0,0,0,0,0,0,0,0,0,0,0,0,0,0,0,0,0,0,0,0,0,0,0,0,0,0,0,0,0,0,0],"id":9,"left_children":[1,3,5,7,9,11,13,15,17,19,21,23,25,27,29,31,33,35,-1,37,39,41,43,45,47,49,51,53,55,57,59,61,63,65,67,-1,-1,69,71,73,75,77,79,81,83,85,87,89,91,-1,-1,93,95,97,99,101,103,105,-1,107,109,-1,-1,-1,-1,-1,-1,-1,-1,-1,-1,-1,-1,-1,-1,-1,-1,-1,-1,-1,-1,-1,-1,-1,-1,-1,-1,-1,-1,-1,-1,-1,-1,-1,-1,-1,-1,-1,-1,-1,-1,-1,-1,-1,-1,-1,-1,-1,-1,-1,-1],"loss_changes":[1.8421769E3,7.7897424E2,1.0381292E3,1.7017139E2,2.7954602E2,1.0195425E3,8.688838E2,1.11856445E2,2.0020554E2,3.62123E2,4.0844733E2,8.0249023E2,5.569259E2,1.2846608E3,9.203086E2,1.0537091E2,1.1117029E2,2.3459253E0,0E0,5.0288495E2,3.7687228E2,6.5696063E2,1.0683129E3,6.265697E2,6.641531E2,3.225763E1,2.648864E2,8.7700165E2,7.3889233E2,2.0392865E2,8.828498E2,7.621756E1,1.3826398E2,1.2344397E2,3.3164313E2,0E0,0E0,3.3886462E2,2.5643042E2,4.695125E2,6.927906E2,6.5372125E2,9.8148364E2,6.1724524E2,3.8300818E2,9.9273615E2,6.7952637E2,5.690493E2,6.728978E2,0E0,0E0,1.9708228E2,2.4335468E2,5.401518E2,1.0443086E3,5.136963E2,7.106904E2,2.8735596E2,0E0,8.960928E2,7.883384E2,0E0,0E0,0E0,0E0,0E0,0E0,0E0,0E0,0E0,0E0,0E0,0E0,0E0,0E0,0E0,0E0,0E0,0E0,0E0,0E0,0E0,0E0,0E0,0E0,0E0,0E0,0E0,0E0,0E0,0E0,0E0,0E0,0E0,0E0,0E0,0E0,0E0,0E0,0E0,0E0,0E0,0E0,0E0,0E0,0E0,0E0,0E0,0E0,0E0,0E0],"parents":[2147483647,0,0,1,1,2,2,3,3,4,4,5,5,6,6,7,7,8,8,9,9,10,10,11,11,12,12,13,13,14,14,15,15,16,16,17,17,19,19,20,20,21,21,22,22,23,23,24,24,25,25,26,26,27,27,28,28,29,29,30,30,31,31,32,32,33,33,34,34,37,37,38,38,39,39,40,40,41,41,42,42,43,43,44,44,45,45,46,46,47,47,48,48,51,51,52,52,53,53,54,54,55,55,56,56,57,57,59,59,60,60],"right_children":[2,4,6,8,10,12,14,16,18,20,22,24,26,28,30,32,34,36,-1,38,40,42,44,46,48,50,52,54,56,58,60,62,64,66,68,-1,-1,70,72,74,76,78,80,82,84,86,88,90,92,-1,-1,94,96,98,100,102,104,106,-1,108,110,-1,-1,-1,-1,-1,-1,-1,-1,-1,-1,-1,-1,-1,-1,-1,-1,-1,-1,-1,-1,-1,-1,-1,-1,-1,-1,-1,-1,-1,-1,-1,-1,-1,-1,-1,-1,-1,-1,-1,-1,-1,-1,-1,-1,-1,-1,-1,-1,-1,-1],"split_conditions":[3.275E1,1.324E1,4.7683334E0,7.097E1,7.733386E1,2.8999996E0,2.4008957E2,4.7370586E1,7.7850003E0,5.139047E1,3.039E1,3.0071463E2,2.3E1,4.875E1,1.302E1,9.3E0,3.504596E1,2.9412498E0,2.7113678E0,3.4E1,3.875E1,3.704E1,3.132E1,2.094E1,3.1296902E2,3.2266667E0,4.2E1,9.068125E1,9.630834E0,3.2545154E2,1.6862455E1,1.0000001E0,1.1885453E1,2.7645092E1,3.2055392E2,-1.4119864E-1,-8.9600235E-1,2.5E1,1.1252519E1,7.7E0,2.4852156E2,4.042E1,3.318271E2,9.330885E1,2.9201126E2,7.3997297E0,3.608E1,7.8E1,9.454165E-1,3.3026457E0,5.6484663E-1,3.275E1,1.2538134E1,7.011082E1,2.69E1,9E1,1.3482917E1,1.26641655E1,-4.5813802E-1,6.919351E1,9.287085E0,-2.5600582E-1,-1.7849809E0,1.994934E-1,-1.666886E0,-1.1974015E-1,-5.310303E-1,2.689497E0,-2.7925885E-1,5.4491216E-1,-4.64075E-1,2.2133458E-1,3.2224264E0,-4.9288154E-2,-1.944747E0,-2.738887E0,-9.8868355E-2,9.707483E-2,1.1876483E0,7.0596737E-1,5.018728E0,-1.2189502E0,1.0491782E0,-8.3253145E-1,-2.856865E0,3.9995606E0,-2.0484092E0,1.6016238E0,5.137986E-1,3.59444E0,-2.1837893E0,3.7419088E0,9.247682E-2,-8.4492135E-1,-3.362014E0,5.5888003E-1,-1.3198302E0,7.1683586E-1,-5.4931617E-1,1.8284478E0,-1.9554592E0,2.32399E0,-3.5534635E-1,-7.9560554E-1,1.3678107E0,1.2804065E0,4.441221E0,1.6078932E0,-2.0297693E-1,-2.1701424E0,2.4872904E-1],"split_indices":[6,5,0,7,4,1,3,4,0,3,6,3,7,5,7,5,2,0,0,5,5,5,7,7,3,0,7,4,0,3,2,1,2,2,3,0,0,5,2,1,3,7,3,3,3,2,5,7,0,0,0,7,2,4,1,7,0,0,0,4,0,0,0,0,0,0,0,0,0,0,0,0,0,0,0,0,0,0,0,0,0,0,0,0,0,0,0,0,0,0,0,0,0,0,0,0,0,0,0,0,0,0,0,0,0,0,0,0,0,0,0],"split_type":[0,0,0,0,0,0,0,0,0,0,0,0,0,0,0,0,0,0,0,0,0,0,0,0,0,0,0,0,0,0,0,0,0,0,0,0,0,0,0,0,0,0,0,0,0,0,0,0,0,0,0,0,0,0,0,0,0,0,0,0,0,0,0,0,0,0,0,0,0,0,0,0,0,0,0,0,0,0,0,0,0,0,0,0,0,0,0,0,0,0,0,0,0,0,0,0,0,0,0,0,0,0,0,0,0,0,0,0,0,0,0],"sum_hessian":[7.045E3,6.025E3,1.02E3,3.956E3,2.069E3,3.25E2,6.95E2,3.951E3,5E0,7.89E2,1.28E3,2.87E2,3.8E1,3.27E2,3.68E2,2.8E2,3.671E3,2E0,3E0,1.44E2,6.45E2,1.192E3,8.8E1,2.4E2,4.7E1,3E0,3.5E1,2.1E2,1.17E2,1.4E1,3.54E2,2.65E2,1.5E1,3.657E3,1.4E1,1E0,1E0,1.33E2,1.1E1,6.07E2,3.8E1,1.074E3,1.18E2,5.2E1,3.6E1,1.5E1,2.25E2,2.3E1,2.4E1,2E0,1E0,1.2E1,2.3E1,1.64E2,4.6E1,6.2E1,5.5E1,1.2E1,2E0,3.01E2,5.3E1,2.63E2,2E0,5E0,1E1,3.591E3,6.6E1,4E0,1E1,8.9E1,4.4E1,4E0,7E0,5.96E2,1.1E1,1.3E1,2.5E1,1.023E3,5.1E1,1.14E2,4E0,1.4E1,3.8E1,2.2E1,1.4E1,2E0,1.3E1,8.1E1,1.44E2,2.2E1,1E0,5E0,1.9E1,7E0,5E0,1.2E1,1.1E1,3.9E1,1.25E2,3.9E1,7E0,5.5E1,7E0,2.2E1,3.3E1,8E0,4E0,2.6E1,2.75E2,3.5E1,1.8E1],"tree_param":{"num_deleted":"0","num_feature":"8","num_nodes":"111","size_leaf_vector":"1"}},{"base_weights":[1.5347431E-2,-1.3413675E-1,8.9759654E-1,-3.1644773E-1,2.1443267E-1,2.600968E0,5.2499276E-1,-3.2245034E-1,3.689999E0,-5.243064E-1,3.7394035E-1,1.1562431E1,1.4304667E0,-7.88314E-2,1.8927145E0,-2.955843E-1,-1.1928638E0,-1.959157E0,7.0043664E0,-6.1782837E-1,5.0697374E0,4.1264552E-1,-6.2201085E0,1.00792465E1,8.780805E0,3.908354E0,2.994692E-1,-5.237347E-1,1.697653E0,2.0992427E0,-7.096927E0,-3.1231835E-1,2.3746586E0,-2.2488441E0,1.8432373E0,-1.2001877E-1,-7.616019E-1,6.456179E-1,2.3713348E0,-5.038138E-1,-8.771723E0,3.81191E-1,6.9940405E0,-9.285271E0,1.2081081E0,-3.3705583E0,1.1123431E1,5.8289313E0,-1.0896271E0,-4.38393E-1,6.009055E0,-2.9396844E-1,-6.5884905E0,7.5625257E0,7.6102936E-1,1.5855812E0,8.688755E0,-1.1920177E1,1.6997147E0,-8.1262015E-2,-3.1206802E-1,-2.935369E-2,2.942544E0,-7.433851E-1,1.5205426E0,1.0956409E0,-2.4880395E0,-4.0423915E-2,-7.0960754E-1,-2.9551263E0,-6.685395E-1,3.336979E-1,3.95269E-2,2.652031E0,-8.8925946E-1,-3.856468E0,-7.505774E-1,-1.5520079E0,3.0567685E-1,4.3592067E0,1.2540325E0,2.0607033E0,-1.340692E0,4.72115E-1,-1.3074796E0,1.3708451E0,-4.7384775E-1,-7.0384973E-1,2.6250713E0,-3.478594E-1,3.4307307E-1,-2.3267199E-1,-3.1739926E0,4.2906346E0,-2.894487E-1,-8.2903814E-1,5.8237E-1,3.4511134E-1,2.3675916E0,1.1335981E0,6.209782E0,-6.559639E-1,-4.330762E0,-5.8732796E-1,1.3521996E0],"categories":[],"categories_nodes":[],"categories_segments":[],"categories_sizes":[],"default_left":[0,0,0,0,0,0,0,0,0,0,0,0,0,0,0,0,0,0,0,0,0,0,0,0,0,0,0,0,0,0,0,0,0,0,0,0,0,0,0,0,0,0,0,0,0,0,0,0,0,0,0,0,0,0,0,0,0,0,0,0,0,0,0,0,0,0,0,0,0,0,0,0,0,0,0,0,0,0,0,0,0,0,0,0,0,0,0,0,0,0,0,0,0,0,0,0,0,0,0,0,0,0,0,0,0],"id":10,"left_children":[1,3,5,7,9,11,13,15,17,19,21,23,25,27,29,31,33,35,37,39,-1,41,43,-1,45,47,49,51,53,55,57,59,61,63,65,-1,-1,-1,-1,67,69,71,73,75,-1,77,79,81,83,85,87,89,91,93,95,97,99,101,103,-1,-1,-1,-1,-1,-1,-1,-1,-1,-1,-1,-1,-1,-1,-1,-1,-1,-1,-1,-1,-1,-1,-1,-1,-1,-1,-1,-1,-1,-1,-1,-1,-1,-1,-1,-1,-1,-1,-1,-1,-1,-1,-1,-1,-1,-1],"loss_changes":[9.29363E2,3.830083E2,6.466453E2,9.635196E1,2.441136E2,1.9030215E3,6.930486E2,9.20632E1,1.26062935E2,6.1008685E2,4.372127E2,9.921467E2,4.5563446E2,4.616712E2,4.9204834E2,1.721048E2,3.8246057E2,1.694931E0,4.5906067E-1,3.3676697E2,0E0,3.4801694E2,3.514833E2,0E0,6.068142E2,4.9590088E2,4.7869064E2,6.4881665E2,6.3694653E2,8.3918774E2,2.7483133E2,1.1471927E2,4.420834E2,1.6008627E2,5.987132E2,0E0,0E0,0E0,0E0,2.4907513E2,1.3339661E1,3.0751242E2,1.7327206E2,1.6154993E2,0E0,3.69247E1,3.4144092E2,4.2699084E2,1.374413E2,5.843805E2,3.1827094E2,5.6249896E2,3.8623132E2,9.3333307E2,4.2964545E2,6.3590356E2,9.8329456E2,6.638263E1,3.963064E1,0E0,0E0,0E0,0E0,0E0,0E0,0E0,0E0,0E0,0E0,0E0,0E0,0E0,0E0,0E0,0E0,0E0,0E0,0E0,0E0,0E0,0E0,0E0,0E0,0E0,0E0,0E0,0E0,0E0,0E0,0E0,0E0,0E0,0E0,0E0,0E0,0E0,0E0,0E0,0E0,0E0,0E0,0E0,0E0,0E0,0E0],"parents":[2147483647,0,0,1,1,2,2,3,3,4,4,5,5,6,6,7,7,8,8,9,9,10,10,11,11,12,12,13,13,14,14,15,15,16,16,17,17,18,18,19,19,21,21,22,22,24,24,25,25,26,26,27,27,28,28,29,29,30,30,31,31,32,32,33,33,34,34,39,39,40,40,41,41,42,42,43,43,45,45,46,46,47,47,48,48,49,49,50,50,51,51,52,52,53,53,54,54,55,55,56,56,57,57,58,58],"right_children":[2,4,6,8,10,12,14,16,18,20,22,24,26,28,30,32,34,36,38,40,-1,42,44,-1,46,48,50,52,54,56,58,60,62,64,66,-1,-1,-1,-1,68,70,72,74,76,-1,78,80,82,84,86,88,90,92,94,96,98,100,102,104,-1,-1,-1,-1,-1,-1,-1,-1,-1,-1,-1,-1,-1,-1,-1,-1,-1,-1,-1,-1,-1,-1,-1,-1,-1,-1,-1,-1,-1,-1,-1,-1,-1,-1,-1,-1,-1,-1,-1,-1,-1,-1,-1,-1,-1,-1],"split_conditions":[3.275E1,1.324E1,7.3997297E0,7.097E1,7.628263E0,3.46E1,4.713E1,2.152E1,7.7850003E0,6.264E1,6.588E1,2.2E1,7.2831085E1,9.2333275E1,2.69E1,1.987E1,2.0414164E1,2.9412498E0,8.051667E0,1.3000002E1,5.0697374E0,9.7092476E1,4.626E1,1.00792465E1,2.463E1,9.146076E1,9.7092476E1,9.1953926E1,9.310476E1,8.600001E0,2.9800005E1,2.0900002E1,1.693531E1,4.713E1,1.7076298E1,-1.2001877E-1,-7.616019E-1,6.456179E-1,2.3713348E0,1.3482917E1,2.58E1,9.422101E0,1.2800001E1,8.130045E1,1.2081081E0,3.4579172E0,2.9201126E2,1.6820415E1,5E1,2.8E1,3.685E1,2.827111E2,3E1,3.775E1,2.733E1,9E1,7.097E1,7.558333E-1,7.9287496E0,-8.1262015E-2,-3.1206802E-1,-2.935369E-2,2.942544E0,-7.433851E-1,1.5205426E0,1.0956409E0,-2.4880395E0,-4.0423915E-2,-7.0960754E-1,-2.9551263E0,-6.685395E-1,3.336979E-1,3.95269E-2,2.652031E0,-8.8925946E-1,-3.856468E0,-7.505774E-1,-1.5520079E0,3.0567685E-1,4.3592067E0,1.2540325E0,2.0607033E0,-1.340692E0,4.72115E-1,-1.3074796E0,1.3708451E0,-4.7384775E-1,-7.0384973E-1,2.6250713E0,-3.478594E-1,3.4307307E-1,-2.3267199E-1,-3.1739926E0,4.2906346E0,-2.894487E-1,-8.2903814E-1,5.8237E-1,3.4511134E-1,2.3675916E0,1.1335981E0,6.209782E0,-6.559639E-1,-4.330762E0,-5.8732796E-1,1.3521996E0],"split_indices":[6,5,2,7,2,6,5,6,0,7,7,5,3,4,1,6,0,0,0,1,0,4,5,0,7,4,4,4,4,1,1,1,2,7,2,0,0,0,0,0,5,2,1,4,0,0,3,0,5,5,5,3,5,5,7,6,5,0,0,0,0,0,0,0,0,0,0,0,0,0,0,0,0,0,0,0,0,0,0,0,0,0,0,0,0,0,0,0,0,0,0,0,0,0,0,0,0,0,0,0,0,0,0,0,0],"split_type":[0,0,0,0,0,0,0,0,0,0,0,0,0,0,0,0,0,0,0,0,0,0,0,0,0,0,0,0,0,0,0,0,0,0,0,0,0,0,0,0,0,0,0,0,0,0,0,0,0,0,0,0,0,0,0,0,0,0,0,0,0,0,0,0,0,0,0,0,0,0,0,0,0,0,0,0,0,0,0,0,0,0,0,0,0,0,0,0,0,0,0,0,0,0,0,0,0,0,0,0,0,0,0,0,0],"sum_hessian":[7.045E3,6.025E3,1.02E3,3.956E3,2.069E3,1.82E2,8.38E2,3.951E3,5E0,3.67E2,1.702E3,2E1,1.62E2,5.82E2,2.56E2,3.834E3,1.17E2,2E0,3E0,3.66E2,1E0,1.693E3,9E0,1E0,1.9E1,5E1,1.12E2,4.66E2,1.16E2,2.51E2,5E0,3.811E3,2.3E1,8.7E1,3E1,1E0,1E0,1E0,2E0,3.62E2,4E0,1.686E3,7E0,7E0,2E0,3E0,1.6E1,3.6E1,1.4E1,1E2,1.2E1,4.5E2,1.6E1,1.5E1,1.01E2,2.34E2,1.7E1,3E0,2E0,3.607E3,2.04E2,1.8E1,5E0,8.5E1,2E0,2.6E1,4E0,3.03E2,5.9E1,3E0,1E0,4.28E2,1.258E3,6E0,1E0,4E0,3E0,2E0,1E0,1E1,6E0,3.3E1,3E0,8E0,6E0,1.8E1,8.2E1,3E0,9E0,2.81E2,1.69E2,7E0,9E0,8E0,7E0,2.5E1,7.6E1,2.2E2,1.4E1,1.3E1,4E0,1E0,2E0,1E0,1E0],"tree_param":{"num_deleted":"0","num_feature":"8","num_nodes":"105","size_leaf_vector":"1"}},{"base_weights":[1.4546709E-2,-1.4173147E-1,5.130116E-1,-1.19869724E-1,-2.6128147E0,2.8548917E-1,2.0237036E0,-2.6862407E-1,2.8642008E-1,1.1394672E-1,-7.0122604E0,2.3014937E-1,6.440301E0,9.120326E0,1.4971354E0,-2.4792008E-1,-1.9223648E0,3.4613797E-1,-6.2310834E0,-1.1269342E0,6.543738E0,-1.4031543E1,-3.2331867E0,1.0399038E0,-1.4318828E-1,-1.6023238E-1,1.0585663E1,1.4314495E1,1.1392047E0,2.0640435E0,-2.8879192E0,-2.7244982E-1,9.893951E-1,-9.375942E-1,-5.149539E0,2.1666633E-1,2.5313025E0,-7.5306206E0,6.1091423E-1,-4.719201E0,1.413183E0,3.207412E0,2.1485646E-1,-4.7432237E0,-7.703296E-1,-1.4024538E-1,-6.8182445E0,8.58237E-1,1.4582423E1,-2.7552414E0,1.2309307E-1,8.0905014E-1,-1.1748729E0,1.3825687E1,-1.8141758E0,6.9195457E0,6.094975E0,6.161795E0,-2.2834544E0,1.2946762E0,5.9446607E0,-9.561064E0,-1.3236745E-1,-1.4609586E-1,-2.4056774E-2,-2.6732141E-2,1.4915825E0,-1.0304413E0,1.9866851E-1,-1.7304236E0,-4.7322276E-1,-5.7472527E-2,2.2918357E-1,1.7815219E-1,1.3216445E0,5.6417114E-1,-2.597939E0,2.6529223E-1,9.6191885E-3,-1.6999677E0,-9.121857E-2,-3.8349083E-1,1.2793369E0,-3.0419886E-1,4.0088427E-1,-7.0819956E-1,8.011022E-1,4.1672517E-2,-3.0994644E0,2.1224417E-1,2.746689E0,5.0467687E0,5.0725967E-1,-4.4416073E-1,-2.0231478E0,5.477602E-2,-1.9666752E0,5.2894144E0,8.6229116E-1,-1.4375211E-2,3.676152E0,2.846352E-1,2.7962623E0,7.745786E-1,-5.351092E-1,2.0490425E0,-2.9601417E0,2.6250288E-1,-3.4338734E0,1.4073764E0,-1.6431719E0],"categories":[],"categories_nodes":[],"categories_segments":[],"categories_sizes":[],"default_left":[0,0,0,0,0,0,0,0,0,0,0,0,0,0,0,0,0,0,0,0,0,0,0,0,0,0,0,0,0,0,0,0,0,0,0,0,0,0,0,0,0,0,0,0,0,0,0,0,0,0,0,0,0,0,0,0,0,0,0,0,0,0,0,0,0,0,0,0,0,0,0,0,0,0,0,0,0,0,0,0,0,0,0,0,0,0,0,0,0,0,0,0,0,0,0,0,0,0,0,0,0,0,0,0,0,0,0,0,0,0,0],"id":11,"left_children":[1,3,5,7,9,11,13,15,17,19,21,23,25,27,29,31,33,35,37,39,41,43,45,47,49,51,53,55,57,59,61,63,65,67,69,71,73,75,77,79,81,-1,83,-1,-1,85,87,89,91,93,95,-1,-1,97,-1,-1,99,101,-1,103,105,107,109,-1,-1,-1,-1,-1,-1,-1,-1,-1,-1,-1,-1,-1,-1,-1,-1,-1,-1,-1,-1,-1,-1,-1,-1,-1,-1,-1,-1,-1,-1,-1,-1,-1,-1,-1,-1,-1,-1,-1,-1,-1,-1,-1,-1,-1,-1,-1,-1],"loss_changes":[5.489504E2,2.895159E2,5.77553E2,3.2154327E2,5.646222E2,4.9682437E2,8.084538E2,1.328501E2,5.571726E2,2.467325E2,4.321084E2,4.388033E2,3.5739697E2,6.055222E2,5.1806085E2,1.1702995E2,1.4771709E2,3.9949597E2,1.2018918E2,2.4391336E2,1.2895236E2,8.178003E1,1.4319261E2,1.1142681E3,6.91707E2,7.494848E1,5.1473596E2,5.067544E2,3.5455954E2,5.38672E2,4.4005103E2,1.5558545E2,3.225819E2,1.5408815E2,1.5205902E1,2.9863803E2,2.8424478E2,1.3318115E2,4.4640672E-1,4.428688E1,1.2823784E2,0E0,5.4891796E0,0E0,0E0,5.6229225E1,1.4809067E2,5.6017377E2,1.4482849E2,4.5776843E2,3.5999402E2,0E0,0E0,2.4106519E2,0E0,0E0,2.2758662E2,7.349808E1,0E0,6.148524E2,4.8742517E2,1.4773285E2,4.897647E2,0E0,0E0,0E0,0E0,0E0,0E0,0E0,0E0,0E0,0E0,0E0,0E0,0E0,0E0,0E0,0E0,0E0,0E0,0E0,0E0,0E0,0E0,0E0,0E0,0E0,0E0,0E0,0E0,0E0,0E0,0E0,0E0,0E0,0E0,0E0,0E0,0E0,0E0,0E0,0E0,0E0,0E0,0E0,0E0,0E0,0E0,0E0,0E0],"parents":[2147483647,0,0,1,1,2,2,3,3,4,4,5,5,6,6,7,7,8,8,9,9,10,10,11,11,12,12,13,13,14,14,15,15,16,16,17,17,18,18,19,19,20,20,21,21,22,22,23,23,24,24,25,25,26,26,27,27,28,28,29,29,30,30,31,31,32,32,33,33,34,34,35,35,36,36,37,37,38,38,39,39,40,40,42,42,45,45,46,46,47,47,48,48,49,49,50,50,53,53,56,56,57,57,59,59,60,60,61,61,62,62],"right_children":[2,4,6,8,10,12,14,16,18,20,22,24,26,28,30,32,34,36,38,40,42,44,46,48,50,52,54,56,58,60,62,64,66,68,70,72,74,76,78,80,82,-1,84,-1,-1,86,88,90,92,94,96,-1,-1,98,-1,-1,100,102,-1,104,106,108,110,-1,-1,-1,-1,-1,-1,-1,-1,-1,-1,-1,-1,-1,-1,-1,-1,-1,-1,-1,-1,-1,-1,-1,-1,-1,-1,-1,-1,-1,-1,-1,-1,-1,-1,-1,-1,-1,-1,-1,-1,-1,-1,-1,-1,-1,-1,-1,-1],"split_conditions":[8.649601E1,6.588E1,4.713E1,1.6E1,7.84858E1,3.3127823E1,2.535E1,1.543E1,2.8728754E1,7.7146515E1,8.2278076E1,4.7683334E0,8.9428314E1,3.275E1,1.4264361E1,2.8728754E1,1E-1,2.4449585E1,2.733E1,1.3450708E1,8.449583E0,5.6808333E0,5.6E1,4.6579165E0,5.4912496E0,1.425E1,4.45E1,1.2313848E2,9.220418E0,1.1620809E1,5.358E1,6.940212E1,8.75E0,6.795418E0,1.72E1,1.2466867E1,8.08619E1,8.15E0,2.9230835E1,7.097E1,8.793334E0,3.207412E0,1.6762081E1,-4.7432237E0,-7.703296E-1,2.463E1,6.276667E0,5.939E1,4E-1,3.0227557E2,7.097E1,8.0905014E-1,-1.1748729E0,1.1276665E1,-1.8141758E0,6.9195457E0,6.264E1,5.130833E0,-2.2834544E0,9.114471E0,1.26641655E1,7.628063E1,5.358E1,-1.4609586E-1,-2.4056774E-2,-2.6732141E-2,1.4915825E0,-1.0304413E0,1.9866851E-1,-1.7304236E0,-4.7322276E-1,-5.7472527E-2,2.2918357E-1,1.7815219E-1,1.3216445E0,5.6417114E-1,-2.597939E0,2.6529223E-1,9.6191885E-3,-1.6999677E0,-9.121857E-2,-3.8349083E-1,1.2793369E0,-3.0419886E-1,4.0088427E-1,-7.0819956E-1,8.011022E-1,4.1672517E-2,-3.0994644E0,2.1224417E-1,2.746689E0,5.0467687E0,5.0725967E-1,-4.4416073E-1,-2.0231478E0,5.477602E-2,-1.9666752E0,5.2894144E0,8.6229116E-1,-1.4375211E-2,3.676152E0,2.846352E-1,2.7962623E0,7.745786E-1,-5.351092E-1,2.0490425E0,-2.9601417E0,2.6250288E-1,-3.4338734E0,1.4073764E0,-1.6431719E0],"split_indices":[4,7,6,6,4,2,5,6,0,4,4,0,4,7,2,0,1,0,7,2,0,0,5,0,0,6,5,3,0,2,6,4,5,0,7,2,3,7,0,6,0,0,0,0,0,6,0,7,1,3,5,0,0,0,0,0,6,0,0,2,0,3,5,0,0,0,0,0,0,0,0,0,0,0,0,0,0,0,0,0,0,0,0,0,0,0,0,0,0,0,0,0,0,0,0,0,0,0,0,0,0,0,0,0,0,0,0,0,0,0,0],"split_type":[0,0,0,0,0,0,0,0,0,0,0,0,0,0,0,0,0,0,0,0,0,0,0,0,0,0,0,0,0,0,0,0,0,0,0,0,0,0,0,0,0,0,0,0,0,0,0,0,0,0,0,0,0,0,0,0,0,0,0,0,0,0,0,0,0,0,0,0,0,0,0,0,0,0,0,0,0,0,0,0,0,0,0,0,0,0,0,0,0,0,0,0,0,0,0,0,0,0,0,0,0,0,0,0,0,0,0,0,0,0,0],"sum_hessian":[7.045E3,5.364E3,1.681E3,5.318E3,4.6E1,1.462E3,2.19E2,3.893E3,1.425E3,2.9E1,1.7E1,1.45E3,1.2E1,1.4E1,2.05E2,3.846E3,4.7E1,1.413E3,1.2E1,2.5E1,4E0,5E0,1.2E1,4.57E2,9.93E2,5E0,7E0,8E0,6E0,1.82E2,2.3E1,3.772E3,7.4E1,3.7E1,1E1,1.335E3,7.8E1,1E1,2E0,1E1,1.5E1,2E0,2E0,4E0,1E0,7E0,5E0,4.52E2,5E0,9.1E1,9.02E2,3E0,2E0,6E0,1E0,3E0,5E0,4E0,2E0,1.53E2,2.9E1,6E0,1.7E1,1.782E3,1.99E3,5.9E1,1.5E1,1.4E1,2.3E1,8E0,2E0,7.65E2,5.7E2,3.9E1,3.9E1,1E0,9E0,1E0,1E0,8E0,2E0,8E0,7E0,1E0,1E0,4E0,3E0,2E0,3E0,4.45E2,7E0,4E0,1E0,7E1,2.1E1,8.95E2,7E0,4E0,2E0,3E0,2E0,2E0,2E0,1.08E2,4.5E1,2.8E1,1E0,1E0,5E0,9E0,8E0],"tree_param":{"num_deleted":"0","num_feature":"8","num_nodes":"111","size_leaf_vector":"1"}},{"base_weights":[1.1248207E-2,-2.0170411E-1,2.4492201E-1,-1.4458264E-1,-1.6587E0,7.3478055E-1,-2.1266448E-1,-1.0367951E0,-8.473654E-2,-1.0583669E0,-6.550895E0,6.9355696E-1,1.3936029E1,-2.6398299E0,-1.4953296E-1,-1.9783694E0,1.554121E0,1.0744667E0,-1.6159342E-1,-1.234549E0,3.1182313E0,-4.495112E0,-3.1940508E0,6.264422E-1,4.4847407E0,8.293354E0,3.5977805E0,1.5128895E0,-7.260089E0,-1.7838417E-1,3.5970924E0,-6.7869407E-1,-5.199291E0,3.8369492E-1,5.3724E0,7.7005535E-1,1.3218675E1,-1.14391185E-1,-1.9095592E0,-1.4704193E0,3.6493027E0,-8.706411E0,3.7693787E0,5.696536E-1,5.0615444E0,1.2734195E0,1.3936787E1,-1.01550585E-2,1.4458822E0,-2.6554945E-1,5.869891E0,-2.253691E0,-5.085279E0,5.053491E-1,-3.6878031E-1,8.144342E0,-8.670306E0,5.191336E-1,-4.1350412E-1,-6.6823614E-1,-2.3863475E0,-4.6968926E-2,1.8691827E0,2.980133E0,9.675953E-1,1.3191736E-1,1.9487566E0,4.4850817E0,9.438432E-1,-7.259294E-2,1.5088183E-1,-1.9840299E-1,-1.804072E0,-3.6081187E-2,-7.6584226E-1,1.4026077E0,-2.221467E-1,-3.05637E0,2.737713E-2,1.8850403E0,-2.5175974E-1,1.9248714E-1,-8.4251934E-1,-2.02504E0,2.2629075E0,6.387532E-1,-9.329353E-1,6.540574E0,-1.1452049E0,1.9649936E0,-8.0420965E-1,2.0984595E0,-1.3199273E-1,1.4949456E-1,-1.2431191E0,2.1581607E-2,1.2767633E0,-5.072711E-1,-4.9809854E-2,-1.7059478E0,3.6938589E0,-3.0245364E-1,-3.266487E0],"categories":[],"categories_nodes":[],"categories_segments":[],"categories_sizes":[],"default_left":[0,0,0,0,0,0,0,0,0,0,0,0,0,0,0,0,0,0,0,0,0,0,0,0,0,0,0,0,0,0,0,0,0,0,0,0,0,0,0,0,0,0,0,0,0,0,0,0,0,0,0,0,0,0,0,0,0,0,0,0,0,0,0,0,0,0,0,0,0,0,0,0,0,0,0,0,0,0,0,0,0,0,0,0,0,0,0,0,0,0,0,0,0,0,0,0,0,0,0,0,0,0,0],"id":12,"left_children":[1,3,5,7,9,11,13,15,17,19,21,23,25,27,29,31,33,35,37,39,-1,-1,41,43,45,-1,47,49,51,53,55,57,59,61,63,65,67,69,71,73,75,77,79,81,83,85,87,-1,-1,89,91,93,-1,95,97,99,101,-1,-1,-1,-1,-1,-1,-1,-1,-1,-1,-1,-1,-1,-1,-1,-1,-1,-1,-1,-1,-1,-1,-1,-1,-1,-1,-1,-1,-1,-1,-1,-1,-1,-1,-1,-1,-1,-1,-1,-1,-1,-1,-1,-1,-1,-1],"loss_changes":[3.506681E2,3.0661356E2,7.533092E2,1.894126E2,4.0130237E2,8.735762E2,2.659202E2,5.47092E2,2.965852E2,2.65047E2,3.7675574E2,4.0913605E2,6.0914966E2,8.551958E2,1.8386217E2,6.830002E2,2.6607947E2,7.550657E2,2.572887E2,1.4820845E2,0E0,0E0,4.9343695E2,3.9808307E2,8.321523E2,0E0,1.7912037E1,1.8752663E2,9.8063794E2,2.192796E2,7.9579205E2,2.012814E2,3.6711816E2,1.4944106E2,1.0507156E2,3.8109946E2,4.017212E1,2.3955905E2,4.16084E2,1.7359775E2,3.0487091E1,9.216522E1,7.479131E1,3.8422806E2,6.3712524E2,8.9142395E1,1.060695E3,0E0,0E0,3.1384784E2,5.2766617E1,8.008586E1,0E0,5.962589E2,3.527505E2,6.4655817E2,5.700052E1,0E0,0E0,0E0,0E0,0E0,0E0,0E0,0E0,0E0,0E0,0E0,0E0,0E0,0E0,0E0,0E0,0E0,0E0,0E0,0E0,0E0,0E0,0E0,0E0,0E0,0E0,0E0,0E0,0E0,0E0,0E0,0E0,0E0,0E0,0E0,0E0,0E0,0E0,0E0,0E0,0E0,0E0,0E0,0E0,0E0,0E0],"parents":[2147483647,0,0,1,1,2,2,3,3,4,4,5,5,6,6,7,7,8,8,9,9,10,10,11,11,12,12,13,13,14,14,15,15,16,16,17,17,18,18,19,19,22,22,23,23,24,24,26,26,27,27,28,28,29,29,30,30,31,31,32,32,33,33,34,34,35,35,36,36,37,37,38,38,39,39,40,40,41,41,42,42,43,43,44,44,45,45,46,46,49,49,50,50,51,51,53,53,54,54,55,55,56,56],"right_children":[2,4,6,8,10,12,14,16,18,20,22,24,26,28,30,32,34,36,38,40,-1,-1,42,44,46,-1,48,50,52,54,56,58,60,62,64,66,68,70,72,74,76,78,80,82,84,86,88,-1,-1,90,92,94,-1,96,98,100,102,-1,-1,-1,-1,-1,-1,-1,-1,-1,-1,-1,-1,-1,-1,-1,-1,-1,-1,-1,-1,-1,-1,-1,-1,-1,-1,-1,-1,-1,-1,-1,-1,-1,-1,-1,-1,-1,-1,-1,-1,-1,-1,-1,-1,-1,-1],"split_conditions":[7.720529E1,7.646583E1,1E0,3.4954169E0,2.88E1,1.970815E1,1.1E0,1.4021525E1,6.276667E0,2.424958E1,2.4E1,9E-1,7.05E0,9.9571085E0,7.8E1,2.058E1,2.535E1,3.0432245E1,3.1883888E1,2.3E1,3.1182313E0,-4.495112E0,1.000256E1,9E1,8.5632324E1,8.293354E0,6.6370835E0,4.279E1,1.672E1,3.1999996E0,9E1,2.7666667E-1,2.189E1,2.774E1,1.5349684E1,5.1E1,3.347E1,1.7E1,2.423E1,7.35E0,9.292255E0,6.264E1,4.2E1,7.097E1,8.657052E1,2.675E1,3.928E1,-1.01550585E-2,1.4458822E0,1.425E1,7.8E1,7.22E0,-5.085279E0,9.463714E1,4.3E0,2.1971588E1,5E1,5.191336E-1,-4.1350412E-1,-6.6823614E-1,-2.3863475E0,-4.6968926E-2,1.8691827E0,2.980133E0,9.675953E-1,1.3191736E-1,1.9487566E0,4.4850817E0,9.438432E-1,-7.259294E-2,1.5088183E-1,-1.9840299E-1,-1.804072E0,-3.6081187E-2,-7.6584226E-1,1.4026077E0,-2.221467E-1,-3.05637E0,2.737713E-2,1.8850403E0,-2.5175974E-1,1.9248714E-1,-8.4251934E-1,-2.02504E0,2.2629075E0,6.387532E-1,-9.329353E-1,6.540574E0,-1.1452049E0,1.9649936E0,-8.0420965E-1,2.0984595E0,-1.3199273E-1,1.4949456E-1,-1.2431191E0,2.1581607E-2,1.2767633E0,-5.072711E-1,-4.9809854E-2,-1.7059478E0,3.6938589E0,-3.0245364E-1,-3.266487E0],"split_indices":[4,4,1,0,5,2,1,2,0,0,6,1,7,2,5,6,6,2,2,5,0,0,2,6,4,0,0,6,5,1,6,0,5,5,2,7,5,6,6,7,2,5,5,6,4,7,7,0,0,6,5,5,0,4,1,3,7,0,0,0,0,0,0,0,0,0,0,0,0,0,0,0,0,0,0,0,0,0,0,0,0,0,0,0,0,0,0,0,0,0,0,0,0,0,0,0,0,0,0,0,0,0,0],"split_type":[0,0,0,0,0,0,0,0,0,0,0,0,0,0,0,0,0,0,0,0,0,0,0,0,0,0,0,0,0,0,0,0,0,0,0,0,0,0,0,0,0,0,0,0,0,0,0,0,0,0,0,0,0,0,0,0,0,0,0,0,0,0,0,0,0,0,0,0,0,0,0,0,0,0,0,0,0,0,0,0,0,0,0,0,0,0,0,0,0,0,0,0,0,0,0,0,0,0,0,0,0,0,0],"sum_hessian":[7.045E3,3.686E3,3.359E3,3.548E3,1.38E2,1.622E3,1.737E3,2.22E2,3.326E3,1.24E2,1.4E1,1.618E3,4E0,4.3E1,1.694E3,1.63E2,5.9E1,2.06E2,3.12E3,1.23E2,1E0,3E0,1.1E1,1.591E3,2.7E1,1E0,3E0,2.3E1,2E1,1.682E3,1.2E1,1.17E2,4.6E1,4.6E1,1.3E1,2.02E2,4E0,3.039E3,8.1E1,1.18E2,5E0,6E0,5E0,1.572E3,1.9E1,2.1E1,6E0,1E0,2E0,1.7E1,6E0,1.4E1,6E0,3.66E2,1.316E3,9E0,3E0,2.6E1,9.1E1,2.3E1,2.3E1,4.3E1,3E0,3E0,1E1,1.92E2,1E1,3E0,1E0,2.519E3,5.2E2,6.3E1,1.8E1,5.3E1,6.5E1,4E0,1E0,5E0,1E0,3E0,2E0,1.54E3,3.2E1,3E0,1.6E1,1.8E1,3E0,4E0,2E0,4E0,1.3E1,5E0,1E0,6E0,8E0,3.29E2,3.7E1,1.74E2,1.142E3,2E0,7E0,1E0,2E0],"tree_param":{"num_deleted":"0","num_feature":"8","num_nodes":"103","size_leaf_vector":"1"}},{"base_weights":[1.0220982E-2,7.2569563E-3,3.1337678E0,3.656291E-2,-8.771406E-1,2.6613956E-2,4.5482965E0,-2.8743281E0,-3.507797E-1,-1.379721E-1,2.2029802E-1,3.669352E-2,9.699172E0,-9.800651E-1,-6.850085E0,3.3300028E0,-8.5786426E-1,-9.7106665E-2,-1.1783133E0,5.737057E-1,-8.6795785E-2,-1.4178674E0,1.7509773E0,3.4810388E0,-2.5898552E-1,2.0970714E0,-2.0486317E0,-8.262148E0,-2.37353E0,4.676698E0,2.0039084E0,-5.7705635E-1,-2.817401E0,9.2721105E-2,-5.8910936E-2,-2.1386476E-1,-1.4935046E0,9.053843E-2,9.135734E-1,-4.441003E-3,-6.386545E-1,5.23869E-1,-1.0996716E0,-8.408709E-1,1.5042627E0,-3.013308E-1,-1.2425979E0,-2.6474514E0,-3.9528668E-1,-8.892205E-1,-2.9754448E-1,1.431589E-1,2.5119407E0,-3.188448E-1,8.867692E-1],"categories":[],"categories_nodes":[],"categories_segments":[],"categories_sizes":[],"default_left":[0,0,0,0,0,0,0,0,0,0,0,0,0,0,0,0,0,0,0,0,0,0,0,0,0,0,0,0,0,0,0,0,0,0,0,0,0,0,0,0,0,0,0,0,0,0,0,0,0,0,0,0,0,0,0],"id":13,"left_children":[1,3,-1,5,7,9,11,13,15,17,19,21,23,25,27,29,31,33,35,37,39,41,-1,-1,-1,43,45,47,49,-1,51,53,-1,-1,-1,-1,-1,-1,-1,-1,-1,-1,-1,-1,-1,-1,-1,-1,-1,-1,-1,-1,-1,-1,-1],"loss_changes":[2.1786827E2,1.8262517E2,0E0,3.0600842E2,2.3657228E2,2.1699E2,3.4822473E2,3.4724948E2,3.3882092E2,1.563371E2,3.394209E2,8.4202255E1,1.50815E2,1.12804245E2,7.5207214E1,3.2640588E2,3.7558707E2,1.4286845E2,2.4229381E2,9.7622504E2,2.460671E2,6.329657E1,0E0,0E0,0E0,1.4269943E2,5.0486595E1,3.1355957E1,1.1399708E0,0E0,2.0020787E2,2.6914728E2,0E0,0E0,0E0,0E0,0E0,0E0,0E0,0E0,0E0,0E0,0E0,0E0,0E0,0E0,0E0,0E0,0E0,0E0,0E0,0E0,0E0,0E0,0E0],"parents":[2147483647,0,0,1,1,3,3,4,4,5,5,6,6,7,7,8,8,9,9,10,10,11,11,12,12,13,13,14,14,15,15,16,16,17,17,18,18,19,19,20,20,21,21,25,25,26,26,27,27,28,28,30,30,31,31],"right_children":[2,4,-1,6,8,10,12,14,16,18,20,22,24,26,28,30,32,34,36,38,40,42,-1,-1,-1,44,46,48,50,-1,52,54,-1,-1,-1,-1,-1,-1,-1,-1,-1,-1,-1,-1,-1,-1,-1,-1,-1,-1,-1,-1,-1,-1,-1],"split_conditions":[1.185E2,2.69E1,3.1337678E0,2.5099998E1,9.287085E0,7.720529E1,2.023E1,2.385E1,1.1805833E1,7.646583E1,4E-1,3.095E1,4.36E1,5.3329163E0,3.3599995E1,5.079665E1,2.733E1,6.253284E1,2.88E1,2E-1,5.6E1,1.127E1,1.7509773E0,3.4810388E0,-2.5898552E-1,1.348E1,9.94E0,6.264E1,2.535E1,4.676698E0,3.804E1,1.8E1,-2.817401E0,9.2721105E-2,-5.8910936E-2,-2.1386476E-1,-1.4935046E0,9.053843E-2,9.135734E-1,-4.441003E-3,-6.386545E-1,5.23869E-1,-1.0996716E0,-8.408709E-1,1.5042627E0,-3.013308E-1,-1.2425979E0,-2.6474514E0,-3.9528668E-1,-8.892205E-1,-2.9754448E-1,1.431589E-1,2.5119407E0,-3.188448E-1,8.867692E-1],"split_indices":[5,1,0,1,0,4,7,5,0,4,1,5,5,0,1,3,5,3,5,1,7,5,0,0,0,7,5,6,5,0,5,5,0,0,0,0,0,0,0,0,0,0,0,0,0,0,0,0,0,0,0,0,0,0,0],"split_type":[0,0,0,0,0,0,0,0,0,0,0,0,0,0,0,0,0,0,0,0,0,0,0,0,0,0,0,0,0,0,0,0,0,0,0,0,0,0,0,0,0,0,0,0,0,0,0,0,0,0,0,0,0,0,0],"sum_hessian":[7.045E3,7.044E3,1E0,6.819E3,2.25E2,6.805E3,1.4E1,4.6E1,1.79E2,3.679E3,3.126E3,8E0,6E0,3.2E1,1.4E1,2.1E1,1.58E2,3.541E3,1.38E2,1.453E3,1.673E3,7E0,1E0,5E0,1E0,8E0,2.4E1,1E1,4E0,1E0,2E1,1.54E2,4E0,6.95E2,2.846E3,1.24E2,1.4E1,1.31E3,1.43E2,1.617E3,5.6E1,3E0,4E0,3E0,5E0,1.7E1,7E0,9E0,1E0,2E0,2E0,1.7E1,3E0,1.36E2,1.8E1],"tree_param":{"num_deleted":"0","num_feature":"8","num_nodes":"55","size_leaf_vector":"1"}},{"base_weights":[8.03327E-3,-1.5409719E-2,9.678921E-1,-1.0067807E-2,-3.6837628E0,3.7493923E0,6.938121E-2,-2.805843E-2,1.5367979E0,1.1833763E0,-7.1257515E0,5.858137E0,-4.3992715E0,2.130005E0,-2.6180277E0,-5.906767E-2,4.6499655E-1,4.0912557E0,-1.9644332E0,-2.2888427E0,2.260838E0,-4.7672713E-1,-7.9152656E0,-4.0944595E0,8.695162E0,-2.304284E0,-1.4782759E0,-6.4157825E0,2.718395E0,-3.818727E0,1.6472645E0,6.431314E-2,-2.1996626E-1,2.7722433E0,-2.980056E-1,1.7126747E1,2.7835064E0,-8.359544E0,1.0485108E0,-1.2505841E0,-2.727146E-1,-2.609184E0,-7.180813E-1,1.0463928E0,-2.8490732E0,1.2900832E0,1.253961E1,-7.196118E-1,2.417229E-1,-3.661685E0,-5.75076E-1,-1.4710599E0,4.010892E0,-6.140923E0,-4.3999988E-1,-1.3316313E0,2.6048064E0,6.007859E-3,1.0508566E0,-2.0464991E-1,1.0468904E-2,1.7594223E0,2.5887695E-1,2.4855937E-1,-3.093252E-1,3.9569953E-1,6.5868998E0,-1.9736543E0,1.2565567E0,-6.1148703E-1,-4.661217E0,8.9848584E-1,-2.8297312E0,-1.1007328E-1,-1.2648297E-2,-1.4669953E-1,4.657471E-1,2.6160908E0,-9.420163E-1,4.520589E0,-1.2856064E0,2.3610972E-1,-1.2733442E-1,-1.6768E0,1.563199E0,3.2011547E0,6.641973E-1,-8.533432E-1,-2.628981E0,8.3314174E-1,-1.9055488E0,-8.0979094E-2,-1.633041E0],"categories":[],"categories_nodes":[],"categories_segments":[],"categories_sizes":[],"default_left":[0,0,0,0,0,0,0,0,0,0,0,0,0,0,0,0,0,0,0,0,0,0,0,0,0,0,0,0,0,0,0,0,0,0,0,0,0,0,0,0,0,0,0,0,0,0,0,0,0,0,0,0,0,0,0,0,0,0,0,0,0,0,0,0,0,0,0,0,0,0,0,0,0,0,0,0,0,0,0,0,0,0,0,0,0,0,0,0,0,0,0,0,0],"id":14,"left_children":[1,3,5,7,9,11,13,15,17,19,21,23,25,27,29,31,33,35,37,39,-1,-1,41,43,45,-1,47,49,51,53,55,57,59,61,63,65,67,69,71,-1,73,-1,-1,75,-1,77,79,-1,81,-1,-1,83,85,87,89,91,-1,-1,-1,-1,-1,-1,-1,-1,-1,-1,-1,-1,-1,-1,-1,-1,-1,-1,-1,-1,-1,-1,-1,-1,-1,-1,-1,-1,-1,-1,-1,-1,-1,-1,-1,-1,-1],"loss_changes":[1.5856372E2,1.3476395E2,4.196068E2,1.9122891E2,1.759588E2,7.3029297E2,7.144069E2,1.0387212E2,7.145931E2,1.27539696E2,1.3649567E1,9.673821E2,7.491728E1,3.8450348E2,2.9308514E2,1.26887E2,7.085207E2,7.364967E2,6.638808E2,1.4022594E1,0E0,0E0,7.722473E-1,2.3212312E2,7.2400244E2,0E0,1.0078653E1,1.0684114E2,3.7952545E2,3.4252496E2,2.8401346E2,5.50888E2,3.267941E2,5.85396E2,2.5108371E2,2.7641895E2,5.931887E2,4.6743317E2,5.1786304E2,0E0,4.9682572E-2,0E0,0E0,4.6444526E0,0E0,3.5655112E2,7.879353E2,0E0,1.4238622E0,0E0,0E0,4.9691586E2,6.1060986E2,1.9982819E2,3.7900424E2,4.2186073E1,0E0,0E0,0E0,0E0,0E0,0E0,0E0,0E0,0E0,0E0,0E0,0E0,0E0,0E0,0E0,0E0,0E0,0E0,0E0,0E0,0E0,0E0,0E0,0E0,0E0,0E0,0E0,0E0,0E0,0E0,0E0,0E0,0E0,0E0,0E0,0E0,0E0],"parents":[2147483647,0,0,1,1,2,2,3,3,4,4,5,5,6,6,7,7,8,8,9,9,10,10,11,11,12,12,13,13,14,14,15,15,16,16,17,17,18,18,19,19,22,22,23,23,24,24,26,26,27,27,28,28,29,29,30,30,31,31,32,32,33,33,34,34,35,35,36,36,37,37,38,38,40,40,43,43,45,45,46,46,48,48,51,51,52,52,53,53,54,54,55,55],"right_children":[2,4,6,8,10,12,14,16,18,20,22,24,26,28,30,32,34,36,38,40,-1,-1,42,44,46,-1,48,50,52,54,56,58,60,62,64,66,68,70,72,-1,74,-1,-1,76,-1,78,80,-1,82,-1,-1,84,86,88,90,92,-1,-1,-1,-1,-1,-1,-1,-1,-1,-1,-1,-1,-1,-1,-1,-1,-1,-1,-1,-1,-1,-1,-1,-1,-1,-1,-1,-1,-1,-1,-1,-1,-1,-1,-1,-1,-1],"split_conditions":[5.939E1,9E1,4.45E1,5.939E1,3.347E1,1.6992609E1,1E-1,4.1E1,1.0105681E1,8.5632324E1,6.4799995E0,2.6370833E0,2.683712E2,2.942E1,6.5E0,2.5063152E2,3.6141665E0,1.348E1,1.1885453E1,1E-1,2.260838E0,-4.7672713E-1,2.9762762E2,9.114471E0,1.909E1,-2.304284E0,3.3127823E1,3.6141665E0,5.6E1,7.8E1,7.097E1,4.36E1,2.827111E2,3.685E1,7.937067E1,5.130833E0,2.2E1,7.097E1,5.792E1,-1.2505841E0,2.36625E0,-2.609184E0,-7.180813E-1,-2.5458336E-1,-2.8490732E0,1E-1,7.8E1,-7.196118E-1,8.193334E0,-3.661685E0,-5.75076E-1,6.9287505E0,2.8308332E0,8.694809E1,7.8E1,7.8E1,2.6048064E0,6.007859E-3,1.0508566E0,-2.0464991E-1,1.0468904E-2,1.7594223E0,2.5887695E-1,2.4855937E-1,-3.093252E-1,3.9569953E-1,6.5868998E0,-1.9736543E0,1.2565567E0,-6.1148703E-1,-4.661217E0,8.9848584E-1,-2.8297312E0,-1.1007328E-1,-1.2648297E-2,-1.4669953E-1,4.657471E-1,2.6160908E0,-9.420163E-1,4.520589E0,-1.2856064E0,2.3610972E-1,-1.2733442E-1,-1.6768E0,1.563199E0,3.2011547E0,6.641973E-1,-8.533432E-1,-2.628981E0,8.3314174E-1,-1.9055488E0,-8.0979094E-2,-1.633041E0],"split_indices":[6,7,7,5,6,2,1,7,2,4,2,0,3,5,1,3,0,6,2,1,0,0,3,2,7,0,2,0,7,6,5,6,3,5,4,0,6,5,6,0,0,0,0,0,0,1,6,0,0,0,0,0,0,4,7,6,0,0,0,0,0,0,0,0,0,0,0,0,0,0,0,0,0,0,0,0,0,0,0,0,0,0,0,0,0,0,0,0,0,0,0,0,0],"split_type":[0,0,0,0,0,0,0,0,0,0,0,0,0,0,0,0,0,0,0,0,0,0,0,0,0,0,0,0,0,0,0,0,0,0,0,0,0,0,0,0,0,0,0,0,0,0,0,0,0,0,0,0,0,0,0,0,0,0,0,0,0,0,0,0,0,0,0,0,0,0,0,0,0,0,0,0,0,0,0,0,0,0,0,0,0,0,0,0,0,0,0,0,0],"sum_hessian":[7.045E3,6.878E3,1.67E2,6.869E3,9E0,4E1,1.27E2,6.791E3,7.8E1,4E0,5E0,3.2E1,8E0,7.2E1,5.5E1,6.39E3,4.01E2,4.5E1,3.3E1,3E0,1E0,1E0,4E0,7E0,2.5E1,3E0,5E0,4E0,6.8E1,4.3E1,1.2E1,3.617E3,2.773E3,9.9E1,3.02E2,3E0,4.2E1,1E1,2.3E1,1E0,2E0,3E0,1E0,4E0,3E0,9E0,1.6E1,3E0,2E0,1E0,3E0,1.6E1,5.2E1,2.5E1,1.8E1,9E0,3E0,3.572E3,4.5E1,9.85E2,1.788E3,3.7E1,6.2E1,1.19E2,1.83E2,1E0,2E0,5E0,3.7E1,6E0,4E0,2E1,3E0,1E0,1E0,1E0,3E0,3E0,6E0,1.4E1,2E0,1E0,1E0,1E1,6E0,1E1,4.2E1,1.2E1,1.3E1,1.2E1,6E0,8E0,1E0],"tree_param":{"num_deleted":"0","num_feature":"8","num_nodes":"93","size_leaf_vector":"1"}},{"base_weights":[4.811458E-3,2.3857648E-3,2.5640728E0,1.4483689E0,-9.198991E-3,6.3104284E-1,9.658887E0,-1.8761872E0,-1.4207865E-3,2.0705996E0,-2.4545507E0,1.2281433E1,-1.2469483E-1,2.1838186E0,-4.4786253E0,2.6773703E0,-1.06857475E-2,9.491289E-1,7.5197654E0,-5.5658135E0,1.7413466E0,4.227977E0,1.026895E0,5.9031124E0,-1.3161218E0,-6.1970015E0,-9.038925E-3,4.7456376E-2,5.3033295E0,1.0747719E-2,-6.5030813E-1,4.7919264E-1,-1.1476235E0,-4.32389E-1,2.8800712E0,-1.8878307E0,1.4651786E-1,-4.2786932E-1,1.5796447E0,2.6856794E0,-3.903847E-2,-6.3919294E-1,5.35651E-1,-2.1107912E0,5.805937E-1,7.2553825E-1,-5.4822123E-1,3.3208314E-1,-7.839379E-1,1.7592256E0,-1.2974739E-1,7.9551747E-4,1.1656944E0,-7.006994E-1,-6.4797945E-2],"categories":[],"categories_nodes":[],"categories_segments":[],"categories_sizes":[],"default_left":[0,0,0,0,0,0,0,0,0,0,0,0,0,0,0,0,0,0,0,0,0,0,0,0,0,0,0,0,0,0,0,0,0,0,0,0,0,0,0,0,0,0,0,0,0,0,0,0,0,0,0,0,0,0,0],"id":15,"left_children":[1,3,-1,5,7,9,11,13,15,17,19,21,-1,23,25,27,29,31,33,35,37,-1,-1,39,41,43,45,47,49,51,53,-1,-1,-1,-1,-1,-1,-1,-1,-1,-1,-1,-1,-1,-1,-1,-1,-1,-1,-1,-1,-1,-1,-1,-1],"loss_changes":[1.459763E2,1.1802667E2,0E0,3.697024E2,1.0150483E2,2.3606052E2,1.3720947E2,3.16192E2,1.7281775E2,2.1286165E2,2.3161914E2,1.5958801E1,0E0,1.639769E2,1.3819174E2,1.6549342E2,9.5136E1,1.0204795E2,1.256962E2,4.7084747E1,9.681357E1,0E0,0E0,1.1154256E2,2.1488651E1,1.0231262E2,3.090399E1,3.9537678E1,4.1132874E1,2.1064708E2,1.6419E2,0E0,0E0,0E0,0E0,0E0,0E0,0E0,0E0,0E0,0E0,0E0,0E0,0E0,0E0,0E0,0E0,0E0,0E0,0E0,0E0,0E0,0E0,0E0,0E0],"parents":[2147483647,0,0,1,1,3,3,4,4,5,5,6,6,7,7,8,8,9,9,10,10,11,11,13,13,14,14,15,15,16,16,17,17,18,18,19,19,20,20,23,23,24,24,25,25,26,26,27,27,28,28,29,29,30,30],"right_children":[2,4,-1,6,8,10,12,14,16,18,20,22,-1,24,26,28,30,32,34,36,38,-1,-1,40,42,44,46,48,50,52,54,-1,-1,-1,-1,-1,-1,-1,-1,-1,-1,-1,-1,-1,-1,-1,-1,-1,-1,-1,-1,-1,-1,-1,-1],"split_conditions":[1.185E2,-2.5458336E-1,2.5640728E0,3.4933426E2,9.958339E-2,2.342E1,7.097E1,7.2415306E1,2.7666667E-1,2.1E1,9.0866905E1,7.8E1,-1.2469483E-1,8.3520775E0,4.279E1,7.011082E1,2.69E1,2.942E1,5.6024273E1,2.9201126E2,3.132E1,4.227977E0,1.026895E0,4.52E1,4.45E1,4.626E1,4.042E1,1.44E1,7.8E1,2.5099998E1,9.287085E0,4.7919264E-1,-1.1476235E0,-4.32389E-1,2.8800712E0,-1.8878307E0,1.4651786E-1,-4.2786932E-1,1.5796447E0,2.6856794E0,-3.903847E-2,-6.3919294E-1,5.35651E-1,-2.1107912E0,5.805937E-1,7.2553825E-1,-5.4822123E-1,3.3208314E-1,-7.839379E-1,1.7592256E0,-1.2974739E-1,7.9551747E-4,1.1656944E0,-7.006994E-1,-6.4797945E-2],"split_indices":[5,0,0,3,0,6,6,3,0,6,4,5,0,2,6,4,1,5,4,3,7,0,0,5,5,5,5,7,5,1,0,0,0,0,0,0,0,0,0,0,0,0,0,0,0,0,0,0,0,0,0,0,0,0,0],"split_type":[0,0,0,0,0,0,0,0,0,0,0,0,0,0,0,0,0,0,0,0,0,0,0,0,0,0,0,0,0,0,0,0,0,0,0,0,0,0,0,0,0,0,0,0,0,0,0,0,0,0,0,0,0,0,0],"sum_hessian":[7.045E3,7.044E3,1E0,5.5E1,6.989E3,5.1E1,4E0,2.8E1,6.961E3,3.5E1,1.6E1,3E0,1E0,1.1E1,1.7E1,2.3E1,6.938E3,3E1,5E0,9E0,7E0,2E0,1E0,5E0,6E0,1.2E1,5E0,1.2E1,1.1E1,6.714E3,2.24E2,2.7E1,3E0,1E0,4E0,8E0,1E0,4E0,3E0,3E0,2E0,5E0,1E0,1.1E1,1E0,2E0,3E0,9E0,3E0,1E1,1E0,6.701E3,1.3E1,4.5E1,1.79E2],"tree_param":{"num_deleted":"0","num_feature":"8","num_nodes":"55","size_leaf_vector":"1"}},{"base_weights":[5.0217495E-3,-5.534259E-2,2.7960423E-1,-4.129533E-2,-3.1608996E0,1.6181195E-1,4.0942955E0,-6.178687E-3,-1.3263404E0,-1.1151597E0,-9.794173E0,5.9092325E-1,-4.2966467E-1,7.7127185E0,-3.5465834E-1,-3.2622E-2,3.0531108E0,-1.9977108E0,3.2381577E0,-1.7754595E0,1.3528917E0,-4.53078E0,5.4845303E-1,3.7746912E-1,3.917986E0,1.0609336E0,-8.709403E-1,5.323247E0,4.288314E0,-5.125712E0,7.8749566E0,-2.3654932E-2,-5.000702E0,-3.356951E0,4.419047E0,-1.0281869E1,-1.6637223E0,4.5995946E0,-1.7660713E0,1.0954366E0,-2.468897E0,-5.696928E-1,8.473537E-1,1.64526E-2,2.3035127E-1,3.0006424E-1,5.2693605E0,5.289904E0,-7.5665736E0,3.4242303E0,-7.618953E-1,3.0164785E0,-1.1374348E0,9.805885E0,2.4913661E-1,7.558047E-1,-9.434768E0,3.801206E0,-2.7429123E0,-2.0878427E-2,2.6536876E-1,6.454902E-1,-3.7750094E0,-3.1524566E-1,-2.285683E0,1.6413355E0,-1.9252111E0,-5.965433E-1,-3.5574293E0,-1.828093E-1,-1.1575034E0,2.76035E0,5.014504E-1,-1.2278965E0,1.1312394E0,3.8568804E-1,7.872992E-2,-1.2210054E0,-2.2779132E-1,-3.0339798E-1,4.703622E-2,5.5407938E-2,9.8216003E-1,2.699937E0,1.3851453E-1,-2.9310076E0,1.8708459E-1,4.669238E0,8.6430424E-1,-5.772404E-1,9.406923E-1,-4.0506044E-1,1.8926172E0,-7.2049356E-1,-2.0308049E-1,4.0961127E0,4.7480366E-1,7.8141177E-1,-1.5990711E0,8.021466E-1,-1.3251424E0,-2.1644518E-1,-3.8327355E0,-1.3882039E0,1.5389329E-1],"categories":[],"categories_nodes":[],"categories_segments":[],"categories_sizes":[],"default_left":[0,0,0,0,0,0,0,0,0,0,0,0,0,0,0,0,0,0,0,0,0,0,0,0,0,0,0,0,0,0,0,0,0,0,0,0,0,0,0,0,0,0,0,0,0,0,0,0,0,0,0,0,0,0,0,0,0,0,0,0,0,0,0,0,0,0,0,0,0,0,0,0,0,0,0,0,0,0,0,0,0,0,0,0,0,0,0,0,0,0,0,0,0,0,0,0,0,0,0,0,0,0,0,0,0],"id":16,"left_children":[1,3,5,7,9,11,13,15,17,19,21,23,25,27,29,31,33,35,37,39,41,-1,43,45,47,49,51,53,-1,55,57,59,61,63,65,67,69,71,73,75,77,79,-1,-1,-1,81,-1,83,85,87,89,91,93,95,97,99,101,-1,103,-1,-1,-1,-1,-1,-1,-1,-1,-1,-1,-1,-1,-1,-1,-1,-1,-1,-1,-1,-1,-1,-1,-1,-1,-1,-1,-1,-1,-1,-1,-1,-1,-1,-1,-1,-1,-1,-1,-1,-1,-1,-1,-1,-1,-1,-1],"loss_changes":[1.1680285E2,2.5188857E2,5.7000073E2,2.5955927E2,3.418967E2,3.1320078E2,6.1446686E2,4.53127E2,4.753326E2,3.662474E1,3.3770148E2,5.0629636E2,3.423039E2,2.5416797E2,7.4711554E2,2.472629E2,4.3510983E2,3.536468E2,1.4438203E2,3.6547905E1,1.5755678E1,0E0,2.827621E-1,8.9006354E2,7.1752905E2,5.152473E2,4.188574E2,3.8422882E2,0E0,3.1125623E2,3.9119757E2,2.3137581E2,5.694123E2,8.04523E1,4.9113733E2,4.178186E1,2.9845813E2,2.0020154E2,7.985299E1,2.9632473E-1,3.5231308E1,1.1210778E0,0E0,0E0,0E0,2.2960938E2,0E0,6.9441406E2,9.632614E1,2.9807806E2,3.1406454E2,3.8229883E2,2.1726968E2,2.6316364E2,1.3216711E2,7.1341446E1,1.945611E2,0E0,2.0780249E1,0E0,0E0,0E0,0E0,0E0,0E0,0E0,0E0,0E0,0E0,0E0,0E0,0E0,0E0,0E0,0E0,0E0,0E0,0E0,0E0,0E0,0E0,0E0,0E0,0E0,0E0,0E0,0E0,0E0,0E0,0E0,0E0,0E0,0E0,0E0,0E0,0E0,0E0,0E0,0E0,0E0,0E0,0E0,0E0,0E0,0E0],"parents":[2147483647,0,0,1,1,2,2,3,3,4,4,5,5,6,6,7,7,8,8,9,9,10,10,11,11,12,12,13,13,14,14,15,15,16,16,17,17,18,18,19,19,20,20,22,22,23,23,24,24,25,25,26,26,27,27,29,29,30,30,31,31,32,32,33,33,34,34,35,35,36,36,37,37,38,38,39,39,40,40,41,41,45,45,47,47,48,48,49,49,50,50,51,51,52,52,53,53,54,54,55,55,56,56,58,58],"right_children":[2,4,6,8,10,12,14,16,18,20,22,24,26,28,30,32,34,36,38,40,42,-1,44,46,48,50,52,54,-1,56,58,60,62,64,66,68,70,72,74,76,78,80,-1,-1,-1,82,-1,84,86,88,90,92,94,96,98,100,102,-1,104,-1,-1,-1,-1,-1,-1,-1,-1,-1,-1,-1,-1,-1,-1,-1,-1,-1,-1,-1,-1,-1,-1,-1,-1,-1,-1,-1,-1,-1,-1,-1,-1,-1,-1,-1,-1,-1,-1,-1,-1,-1,-1,-1,-1,-1,-1],"split_conditions":[8.902311E1,8.870804E1,6.588E1,5.358E1,3.704E1,2.7E1,7.097E1,5.792E1,3.344862E2,1.2199999E1,4.2E1,3.775E1,2.675E1,7.8E1,7.145796E0,5.6E1,2.2E1,1.6037501E0,9E1,7.92E0,3.198E1,-4.53078E0,3.70375E0,6.264E1,6.588E1,3E-1,2.868606E1,1E-1,4.288314E0,5.4605137E1,8.845416E0,3.775E1,1.984351E2,8.793334E0,2.0953749E1,9.958339E-2,8.5632324E1,3.4635703E2,1.185E2,1.03E1,4E-1,9.18E0,8.473537E-1,1.64526E-2,2.3035127E-1,2.6E1,5.2693605E0,9.2539085E1,8.651668E0,8.918069E1,9.5069435E1,1.7599283E1,9.159351E1,2.7576776E2,9.486103E1,9E1,1.3620834E0,3.801206E0,7.097E1,-2.0878427E-2,2.6536876E-1,6.454902E-1,-3.7750094E0,-3.1524566E-1,-2.285683E0,1.6413355E0,-1.9252111E0,-5.965433E-1,-3.5574293E0,-1.828093E-1,-1.1575034E0,2.76035E0,5.014504E-1,-1.2278965E0,1.1312394E0,3.8568804E-1,7.872992E-2,-1.2210054E0,-2.2779132E-1,-3.0339798E-1,4.703622E-2,5.5407938E-2,9.8216003E-1,2.699937E0,1.3851453E-1,-2.9310076E0,1.8708459E-1,4.669238E0,8.6430424E-1,-5.772404E-1,9.406923E-1,-4.0506044E-1,1.8926172E0,-7.2049356E-1,-2.0308049E-1,4.0961127E0,4.7480366E-1,7.8141177E-1,-1.5990711E0,8.021466E-1,-1.3251424E0,-2.1644518E-1,-3.8327355E0,-1.3882039E0,1.5389329E-1],"split_indices":[4,4,7,7,5,7,6,5,3,1,5,6,6,5,2,5,6,0,5,2,7,0,0,5,5,1,3,1,0,3,0,7,3,0,0,0,4,3,7,6,1,5,0,0,0,7,0,4,0,4,4,3,4,3,4,7,0,0,5,0,0,0,0,0,0,0,0,0,0,0,0,0,0,0,0,0,0,0,0,0,0,0,0,0,0,0,0,0,0,0,0,0,0,0,0,0,0,0,0,0,0,0,0,0,0],"split_type":[0,0,0,0,0,0,0,0,0,0,0,0,0,0,0,0,0,0,0,0,0,0,0,0,0,0,0,0,0,0,0,0,0,0,0,0,0,0,0,0,0,0,0,0,0,0,0,0,0,0,0,0,0,0,0,0,0,0,0,0,0,0,0,0,0,0,0,0,0,0,0,0,0,0,0,0,0,0,0,0,0,0,0,0,0,0,0,0,0,0,0,0,0,0,0,0,0,0,0,0,0,0,0,0,0],"sum_hessian":[7.045E3,5.776E3,1.269E3,5.751E3,2.5E1,1.232E3,3.7E1,5.599E3,1.52E2,2E1,5E0,7.14E2,5.18E2,2E1,1.7E1,5.552E3,4.7E1,1.33E2,1.9E1,1.6E1,4E0,3E0,2E0,6.72E2,4.2E1,1.18E2,4E2,1.6E1,4E0,1.1E1,6E0,5.543E3,9E0,8E0,3.9E1,4E0,1.29E2,1.5E1,4E0,3E0,1.3E1,2E0,2E0,1E0,1E0,6.7E2,2E0,3.8E1,4E0,5.1E1,6.7E1,2.5E1,3.75E2,8E0,8E0,5E0,6E0,4E0,2E0,5.277E3,2.66E2,5E0,4E0,6E0,2E0,3.6E1,3E0,1E0,3E0,8.8E1,4.1E1,5E0,1E1,3E0,1E0,2E0,1E0,6E0,7E0,1E0,1E0,6.46E2,2.4E1,2.1E1,1.7E1,3E0,1E0,1E0,5E1,5.2E1,1.5E1,1.1E1,1.4E1,